tree
version=v3
num_class=1
num_tree_per_iteration=1
label_index=0
max_feature_idx=14
objective=binary sigmoid:1
feature_names=d_next_domain LEWP710101_domain perc_hydro_domain YUTK870104_cluster BASU050102_pm16 WILM950103_domain SUYM030101_domain WILM950103_cluster QIAN880128_cluster DAYM780201_cluster GEOR030102_cluster RACS820107_cluster domain_size d_prev_domain SUYM030101_pm16
feature_infos=[-2755:1002] [0.040000000000000001:0.59499999999999997] [0:1] [9.2449999999999992:18.904736842105262] [-0.053930303030303016:0.33315217391304336] [-1.6399999999999999:5.1516666666666664] [-0.30933333333333324:0.3165] [-2.333333333333333:5.7149999999999999] [-0.214:0.39750000000000002] [40.5:120.66666666666669] [0.78715625000000011:1.2156666666666669] [0.19:1.9536363636363641] [0:7.9058103126589323] [0:2755] [-0.27941176470588225:0.29085185185185203]
tree_sizes=10525 11029 10996 11032 11038 11010 11042 11102 11011 11022 11054 11105 11071 11034 11097 11103 11066 11044 11083 11082 11119 11058 11055 11081 11078 11054 11065 11132 11064 11091 11103 11099 11075 11077 11155 11103 11049 11062 11066 11086 11151 11080 11141 11089 11074 11025 11084 11101 11130 11141 11051 11093 11126 11073 10990 11141 11058 11049 11125 11082 11045 11016 11047 11091 11150 11047 11057 11038 11121 11129 11091 11065 11028 11116 11048 11074 11147 11146 11035 11020 11133 11042 11162 11107 11220 11033 11032 11173 11160 11175 11036 11008 11028 11130 11147 11152 11018 11120 11020 11014 11139 11103 11184 11039 11121 11174 11164 11004 11161 11167 11011 11035 11015 11014 11005 11006 11179 10999 11172 11162 11133 11125 10999 11003 11149 11114 11007 11196 11011 11015 11152 11030 11001 11134 11007 11114 11179 11009 10990 11178 11152 11164 10974 11190 11017 11151 11175 11189 11017 11012 11158 11157 10992 11177 11008 11182 11124 11190 11196 11169 11004 11149 11022 11003 10981 10989 11016 11019 11006 11160 11025 11150 10989 11014 10999 11190 11177 11168 11013 11180 10985 11025 11007 11025 11167 11020 11021 11011 11196 11183 11027 11017 11022 11211 11179 10960 11152 11177 11010 11176 11185 11161 10980 11185 11164 10980 11194 10950 11198 11200 11178 10991 10999 11019 11017 11208 11007 11000 11127 10988 11172 10949 10993 11188 11192 11170 11187 10978 11204 10994 10985 10977 11183 11003 11184 11005 10950 10987 10960 11021 11193 10957 11186 11145 10991 10957 10990 11188 11193 10997 11191 11186 10988 10969 10978 10965 10971 10988 11176 11183 11193 10964 10956 10948 10992 11009 11193 10982 11189 11006 11190 10976 10932 11202 10979 11196 10985 11174 11008 11163 11151 10964 11172 10945 10962 10987 10986 11189 10964 10949 10975 11169 11188 10969 11184 11188 10966 11178 10975 11183

Tree=0
num_leaves=100
num_cat=0
split_feature=4 8 12 12 1 6 14 4 10 1 11 2 4 14 7 3 10 4 7 11 3 7 9 3 9 12 9 5 3 1 0 14 6 7 9 1 1 14 12 0 10 11 11 14 3 11 11 1 8 1 3 6 7 6 0 0 6 13 8 12 13 5 2 6 2 2 2 7 6 4 7 2 3 3 5 7 12 10 12 0 7 10 8 11 1 0 12 9 3 11 0 1 13 8 2 1 8 10 9
split_gain=61818.4 9545.68 6786.91 5400.6 3500.1 3382.97 2738.67 2260.4 1725.45 1942.64 1569.88 1456.99 1379.9 1363.47 1394.33 1304.09 1248.48 1201.22 1111.94 1089.67 1054.57 991.604 915.026 894.632 850.823 823.747 749.202 740.989 724.031 704.517 662.802 649.082 617.937 868.808 601.73 568.418 566.863 564.473 558.451 551.878 547.277 539.716 532.936 543.512 505.982 692.572 478.28 598.905 721.411 476.789 471.751 522.985 434.467 433.394 420.311 418.842 416.008 406.768 536.513 406.282 480.109 402.638 379.857 588.396 974.003 499.533 368.273 367.483 355.794 344.782 343.916 343.041 336.36 331.07 330.87 328.221 812.249 502.64 557.709 328.072 379.922 357.113 325.699 436.026 399.823 316.981 314.5 314.156 314.112 314.056 314.006 313.792 356.942 404.583 376.513 313.127 310.328 308.543 294.331
threshold=0.069656060606060624 -0.038022230870696234 4.2555875595453392 5.0205801788306017 0.29444444444444423 -0.025597277537430501 -0.14124242424242422 0.052078787878787898 0.99875335761938244 0.35589798522796162 1.073970368744511 0.28458411507192 0.048009090909090918 -0.10627272727272725 0.80613764576620317 16.984726412213739 1.0463974426029468 0.090731818181818191 0.7914856231548385 0.99348974817668922 18.195421391484931 -0.27613824838187723 82.935799222698407 17.350813885703339 82.935799222698407 4.4005842009683471 82.669438589027052 0.82795969133922254 17.321485072709493 0.35179823123004933 -20.499999999999996 -0.10627272727272725 -0.03927365802566115 0.74210145617207568 83.109470893706671 0.32237762237762219 0.42826923076923046 -0.039030303030303019 4.4942230200312023 -62.499999999999993 1.0217959594545651 0.9766804581763765 0.98156941797390251 -0.066241901776384504 17.808404729145085 0.99348974817668922 0.99348974817668922 0.33046897910557155 -0.002574242816938192 0.31317991631799214 16.924014830508423 -0.041647008849557521 -0.27613824838187723 -0.04371739856533103 -127.49999999999999 1.5000000000000002 -0.049886103061051075 284.50000000000006 -0.017234042553191466 4.7833076179467886 814.50000000000011 0.45622245124464716 0.3357489191128849 -0.02218472926657299 0.32445724412937532 0.32994845360824748 0.33797465287033229 0.74937706111093116 0.044777124183006563 0.040013636363636383 0.13611268588373757 0.42780065700958197 17.823877101995915 16.963664202703743 1.0000000180025095e-35 0.89817995419928465 5.0968083143154823 1.0285696519328518 4.6395599436855059 -131.49999999999997 0.60189021839176748 1.0281466340000793 0.010206795133616107 1.0670972829958272 0.32321455026455043 -112.49999999999999 2.8029010331479993 66.627139784303779 16.718889851723493 1.1067152114999488 -39.499999999999993 0.30267353205908815 45.500000000000007 -0.0044732455303174963 0.315395752895753 0.3339047287687999 -0.039374999999999917 0.98226326442722345 78.216445106827408
decision_type=2 2 2 2 2 2 2 2 2 2 2 2 2 2 2 2 2 2 2 2 2 2 2 2 2 2 2 2 2 2 2 2 2 2 2 2 2 2 2 2 2 2 2 2 2 2 2 2 2 2 2 2 2 2 2 2 2 2 2 2 2 2 2 2 2 2 2 2 2 2 2 2 2 2 2 2 2 2 2 2 2 2 2 2 2 2 2 2 2 2 2 2 2 2 2 2 2 2 2
left_child=1 4 5 6 40 13 18 8 27 22 34 25 -12 14 -2 -11 36 21 89 32 26 -7 23 38 46 -4 28 69 37 35 41 -27 33 -9 85 -28 -5 82 53 -23 -1 -25 43 66 45 -17 47 -15 -49 -20 51 61 -33 67 -14 -32 -43 58 72 60 62 -48 63 64 -44 -66 -13 70 75 -8 -10 91 -58 -55 -24 77 -77 -54 -79 -75 -81 -82 83 84 -21 -6 -19 -65 -36 -3 -30 -26 94 -94 96 -37 -93 -29 -60
right_child=2 3 11 16 10 17 7 19 9 15 12 42 54 24 -16 44 -18 86 49 20 -22 39 74 30 71 31 29 97 90 -31 55 52 -34 -35 88 95 -38 -39 -40 -41 -42 56 59 -45 -46 -47 50 48 -50 -51 -52 -53 68 73 -56 -57 57 -59 98 -61 -62 -63 -64 87 65 -67 -68 -69 -70 -71 -72 -73 -74 79 -76 76 -78 78 -80 80 81 -83 -84 -85 -86 -87 -88 -89 -90 -91 -92 92 93 -95 -96 -97 -98 -99 -100
leaf_value=0.4493815094110013 0.43311311047809553 0.43277370081981897 0.4382052205897301 0.45038024121499309 0.44906495657813589 0.43530878369637094 0.43710272767440378 0.43445128757922857 0.44714632563911677 0.43841348254329532 0.43605873204001994 0.43320785492152486 0.450604220764036 0.44822809782837214 0.44963704663701498 0.43322799902769615 0.43407369503637921 0.44842824509021095 0.43204985544235908 0.44320379755530637 0.43643721751219927 0.44990339638732052 0.44942047798470458 0.43833567467246637 0.44843663496528285 0.43712275924313054 0.44630834595871066 0.4374581312683461 0.44910335125326478 0.44745370544036911 0.43373566745520431 0.43175086101272203 0.44551760049340444 0.44586613474352366 0.44209493512693832 0.4343050794863752 0.43361449182736167 0.44716169005336259 0.43438700899896932 0.44788482491496651 0.43539370252879034 0.45074503722759846 0.44911862663764324 0.45006759102585686 0.44274503255357689 0.44987109730365521 0.44844455947154349 0.43525321101664788 0.44556530534111982 0.44550808643862905 0.44943432481827322 0.44794824952775569 0.45058063788041303 0.44482036172413925 0.44248395705167576 0.44476057518294304 0.43356697329402272 0.45090611723000656 0.44270818510671894 0.45156986664128101 0.43175086101272203 0.43475880544231349 0.45130139588979745 0.43481843796369246 0.43307905221459708 0.44685176135902638 0.44858279397265338 0.44907870495611707 0.43175086101272203 0.44107149646815358 0.43366588311598403 0.44893713224189757 0.4493273086836817 0.44777120914195989 0.43636715747505628 0.44989443087078412 0.43528524354535203 0.44965124172538212 0.43550139081625844 0.44434710934262606 0.43520666938619451 0.44757709620232133 0.44541714706559088 0.44477548988139232 0.43222187423701475 0.43748975945960766 0.45084352808994493 0.45079076613757924 0.43266076281879345 0.44874976223218332 0.44642395751703606 0.43611674246168725 0.44578351978448127 0.43363641874822678 0.43484061628891413 0.44152702385150805 0.44613979560880485 0.44752725742509208 0.44746106569830779
leaf_weight=210.06143552064896 109.8456249833107 234.07324254512787 56.800523459911346 1646.2239919304848 24.631137013435364 42.057446777820587 462.73475933074951 141.30164533853531 17.495208203792572 111.17303586006165 283.09638684988022 25.675663948059082 79.765798568725586 400.03771644830704 63.582158744335175 20.260414719581604 38.652045488357544 450.41743892431259 25.023399949073792 44.422344207763672 78.22943103313446 2414.8803681135178 16.513794898986816 65.901290416717529 84.298705995082855 34.819429159164429 97.137040853500366 30.151492357254028 1442.6917306184769 221.55626720190048 60.313042402267456 10.924541115760801 196.19391006231308 83.748530805110931 28.931955099105835 93.734906673431396 16.05866813659668 787.47044295072556 85.145339727401733 1915.2187524437904 24.646223545074463 159.53059136867523 411.40430933237076 1320.1790078282356 101.39888375997543 736.20184445381165 25.09833300113678 72.632131099700928 203.09875530004501 121.82223957777023 1466.4613971710205 177.83823716640472 1184.8732097744942 342.33523541688919 135.93115609884262 49.458405494689941 49.436528384685516 97.256983697414398 161.82784593105316 70790.904923558235 10.224250018596647 52.234675467014313 8180.4503259658813 9.7560482621192914 50.698058128356934 35.177495956420898 23.558698356151581 18.566641092300415 8.8236678242683393 275.33283865451813 101.5801784992218 108.83479458093643 13.621605157852171 43.900080740451813 210.69735085964203 103.09240758419037 42.337563216686249 52.246494889259338 37.902721524238586 81.374581456184387 136.39558458328247 21.273762822151184 252.93031412363052 105.1223708987236 63.538404524326324 76.91886842250824 7579.9553380608559 2109.3912580609322 731.82104480266571 10.123166978359221 453.30384385585785 35.987922012805939 235.66317218542099 23.807885766029358 77.488153219223022 95.66454291343689 75.396082043647766 117.61244684457779 281.45894283056259
leaf_count=676 751 1618 324 4932 81 267 2753 924 65 629 1750 175 235 1390 201 138 256 1545 177 204 477 7491 53 374 289 207 379 177 4732 808 404 78 800 335 140 616 108 2923 558 6801 156 465 1348 4047 476 2289 86 462 826 497 4702 629 3497 1449 646 210 333 280 761 193353 73 338 22832 63 347 133 80 61 63 1395 682 361 44 157 1288 320 269 165 239 353 869 77 1037 446 447 451 21928 6127 5077 34 1757 222 947 160 500 475 297 427 1026
internal_value=0.448424 0.444281 0.451099 0.445287 0.437897 0.449398 0.444365 0.444719 0.443174 0.444196 0.43617 0.451413 0.440136 0.44683 0.439171 0.447463 0.449851 0.450063 0.437108 0.446156 0.446639 0.448879 0.442624 0.443299 0.447267 0.448699 0.446857 0.439732 0.447368 0.443693 0.445188 0.449103 0.441875 0.438699 0.433877 0.440785 0.450218 0.445712 0.441208 0.449011 0.447913 0.446046 0.451463 0.449726 0.448636 0.449425 0.448035 0.446033 0.442849 0.443215 0.448821 0.445297 0.449393 0.44197 0.445487 0.438703 0.446712 0.445646 0.444636 0.451492 0.450985 0.439201 0.451004 0.450072 0.447323 0.438721 0.440565 0.437458 0.449528 0.438583 0.435647 0.444394 0.436971 0.442963 0.437316 0.449638 0.445641 0.450094 0.443702 0.440715 0.439419 0.436876 0.443262 0.440705 0.436741 0.440297 0.450708 0.450717 0.43302 0.433436 0.448463 0.443466 0.442531 0.444669 0.439594 0.437953 0.442901 0.445473 0.445726
internal_weight=0 11713.8 100114 10118 1595.8 15614.8 8417.04 8025.99 3868.95 2983.12 1361.1 84499.2 498.793 3212.31 173.428 969.034 1700.93 12402.5 391.042 4157.05 3735.8 4372.16 2014.08 1786.87 3038.88 1531.82 3657.57 885.832 3149.48 508.093 938.805 1475.02 421.244 225.05 862.303 286.536 1662.28 1253.48 848.067 4330.1 234.708 829.034 82967.4 1369.41 857.861 756.462 2397.4 675.769 275.731 146.846 1721.63 255.171 1440.2 762.921 215.697 109.771 763.132 603.602 506.345 81598 10807.1 77.333 10796.9 2616.43 497.28 85.8756 49.2344 137.642 1429.28 738.068 119.075 641.477 63.0581 625.279 227.211 1420.45 145.43 1275.02 90.1492 282.944 239.044 157.669 466.013 213.083 107.961 101.55 8030.37 2119.15 760.753 244.196 1896 532.642 448.343 259.471 188.872 189.399 111.384 147.764 443.287
internal_count=334920 50987 283933 41775 9212 50193 36479 34153 17793 13041 8380 233740 2631 12161 952 3532 5296 38032 2326 16360 14301 14559 9509 8168 11209 5162 13824 4752 11546 2278 3897 4838 2059 1259 5749 1470 5040 5057 4271 14292 832 3283 228578 4302 2903 2427 8433 2678 1288 674 5755 1053 4631 3713 881 614 2909 2444 2164 224276 30923 424 30850 8018 1828 480 255 808 4553 4148 747 2776 377 2905 1341 4490 589 3901 404 1456 1299 946 2134 1097 651 532 23473 6190 5217 1652 6489 2415 2126 1107 1019 1091 519 604 1787
shrinkage=0.280822


Tree=1
num_leaves=100
num_cat=0
split_feature=4 8 12 12 6 1 14 4 10 1 9 2 11 4 3 10 4 13 7 5 9 3 12 11 14 5 9 2 0 14 3 9 5 9 1 0 11 13 14 12 11 11 3 11 9 1 1 8 3 12 13 6 5 6 6 13 8 0 2 0 2 6 2 2 3 7 12 10 5 13 7 13 0 1 10 2 12 11 1 8 2 0 13 7 13 13 3 7 12 1 9 3 0 5 12 6 9 6 9
split_gain=60652.1 8968.33 6757.27 5220.82 3326.83 3247.14 2565.3 2156.78 1620.08 1854.84 1520.92 1449.33 1423.73 1349.28 1246.03 1192.05 1088.06 1063.17 1011.74 972.739 851.299 845.031 789.892 708.684 691.427 690.329 648.804 632.572 626.387 626.164 574.595 571.538 552.887 850.523 541.343 534.054 531.591 530.042 528.523 512.661 511.529 509.692 490.7 658.744 478.238 441.196 434.253 429.888 416.557 406.572 458.037 405.939 406.716 405.61 402.283 394.825 503.875 391.776 390.517 384.179 378.602 580.506 931.917 459.809 356.773 346.254 708.664 350.472 459.117 342.206 341.106 337.714 334.093 448.367 681.234 336.26 342.7 322.986 579.817 468.14 488.09 320.805 318.91 314.977 313.67 456.684 310.559 309.308 401.678 444.52 308.836 308.407 308.235 307.817 307.774 305.094 301.511 297.174 307.679
threshold=0.069656060606060624 -0.038022230870696234 4.2555875595453392 5.0205801788306017 -0.023110818713450273 0.29444444444444423 -0.14124242424242422 0.052078787878787898 0.99875335761938244 0.35589798522796162 82.935799222698407 0.28458411507192 1.0834432662678988 0.048009090909090918 16.984726412213739 1.0463974426029468 0.090731818181818191 56.500000000000007 0.7914856231548385 -0.17703574542284214 82.935799222698407 17.350813885703339 4.4005842009683471 0.99348974817668922 -0.064287878787878769 0.82795969133922254 83.837531725888354 0.38381108381108386 -20.499999999999996 -0.091339743589743588 18.195421391484931 83.109470893706671 0.76415136455525678 81.589878020822653 0.42826923076923046 -69.499999999999986 0.98156941797390251 30.500000000000004 -0.062422647527910671 4.4942230200312023 0.9766804581763765 1.0136251464114034 17.808404729145085 0.99348974817668922 82.935799222698407 0.32155212291951646 0.35515332242111936 -0.0037265316095784228 18.278556134259265 4.7833076179467886 814.50000000000011 -0.037059714795008906 0.87183615925536562 -0.049886103061051075 -0.04371739856533103 284.50000000000006 -0.017234042553191466 -69.499999999999986 0.33797465287033229 1.5000000000000002 0.3357489191128849 -0.02218472926657299 0.32445724412937532 0.32994845360824748 16.718889851723493 0.89563407233397074 5.0968083143154823 1.0285696519328518 0.77665318683730977 58.500000000000007 0.74937706111093116 47.500000000000007 -52.499999999999993 0.38016294584854299 0.99094576234963949 0.18257575757575759 3.7494348669884654 1.0279420168067228 0.32729677890916758 0.010206795133616107 0.33232427616926513 -112.49999999999999 21.500000000000004 0.13611268588373757 34.500000000000007 56.500000000000007 17.823877101995915 0.75364917091058603 4.0163424379838117 0.29188064039933598 69.787542527098665 16.82686391843971 -129.49999999999997 1.0000000180025095e-35 2.8029010331479993 0.044777124183006563 66.627139784303779 0.0074724747474747529 75.314015259654852
decision_type=2 2 2 2 2 2 2 2 2 2 2 2 2 2 2 2 2 2 2 2 2 2 2 2 2 2 2 2 2 2 2 2 2 2 2 2 2 2 2 2 2 2 2 2 2 2 2 2 2 2 2 2 2 2 2 2 2 2 2 2 2 2 2 2 2 2 2 2 2 2 2 2 2 2 2 2 2 2 2 2 2 2 2 2 2 2 2 2 2 2 2 2 2 2 2 2 2 2 2
left_child=1 5 4 6 10 37 18 8 25 20 24 22 31 -14 -11 34 19 23 -3 90 21 39 -4 51 32 72 27 41 40 -24 -25 81 33 47 -5 -21 38 -1 58 54 -23 -12 43 -16 57 -20 -46 -2 65 50 60 52 -9 -42 70 56 86 -19 -13 -30 61 62 -38 -64 -33 67 -67 95 71 77 83 -69 73 74 -8 -74 -77 78 -26 80 -80 -7 -43 -10 -56 -86 -55 88 89 -28 -6 -76 -15 -22 -18 -31 -63 -27 -99
right_child=2 3 11 15 16 12 7 17 9 14 26 36 13 92 42 -17 94 44 45 35 93 28 29 30 69 97 87 -29 59 48 -32 64 -34 -35 -36 -37 49 -39 -40 -41 53 82 -44 -45 46 -47 -48 -49 -50 -51 -52 -53 -54 55 84 -57 -58 -59 -60 -61 -62 96 63 -65 -66 66 -68 68 -70 -71 -72 -73 75 -75 91 76 -78 -79 79 -81 -82 -83 -84 -85 85 -87 -88 -89 -90 -91 -92 -93 -94 -95 -96 -97 -98 98 -100
leaf_value=-0.0065928935821949371 -0.011719449055846045 -0.012307745780140286 -0.0084852752963479675 0.0016714744290994158 -0.013865272463039445 0.00071228912210048213 -0.001656558934607066 -0.011630333234178893 -0.0010836566457583868 -0.0083163932953218729 -0.0036546491058108204 -0.011755624649358193 -0.010242953306121559 0.0019854751108771998 -0.01247273292173337 -0.011801737470539387 2.6303606595924673e-05 0.00055385935638310442 -0.011684395748076197 0.0014638488761792464 0.00084938463689049749 -0.0083795083834949727 -0.0077592639528967968 -0.0023502858706023542 0.00038074360902219353 -0.009132405097580093 0.0010766371752128181 0.00061165481474233945 -0.012070254428227498 0.0018753549269212642 -0.0094187051260961139 -0.0049123777756383815 -7.3050346042251819e-05 0.00065494495837017377 -0.012166409319106715 -0.00026255056681155549 0.0005916065566811331 0.0016976016456843937 0.0014365720501673443 -0.011552473795585433 0.001984927618753355 -0.00046228349093273437 -0.0047661463839108109 0.0012348977369256795 -0.0069806163919891645 -0.0020124166705157761 0.00025442500627277138 -0.0043169657757623379 -0.009845284865759087 0.0026956769847570985 -0.013638401324690659 -0.0033732371947899496 -0.0027171885121408126 -0.012204100773875988 -0.0018087756966595695 0.0021235099365719302 -0.0022803760090156131 -0.0015349043696064836 0.00041198979096729809 -0.003089284704737523 0.0024640311747064839 -0.01120864349841745 -0.012590637209509372 -0.0013325157529001245 -0.012833896175273878 0.0010221327249683619 -0.01076603026702933 0.0020761465217593814 0.0021822355153346541 0.0013380560308574444 0.0005575415739181599 -0.013274066104145377 -0.011238731207081843 -0.011492206088926571 0.0015111159788688657 -0.009987400332610398 -0.00028911238872670426 0.00046952943429548905 -0.011673505402203454 -0.0012657225456119336 -0.0030277374514646603 -0.0089770209001862333 -0.0127283495847783 -0.012125636160491463 -0.0092950150246347563 -0.0040530616850348875 0.00076977962610641395 -0.00068608953523843471 0.0011598332730342767 -0.007810623205886609 -0.0031088673788005035 -0.0098267111321924342 -0.004228782783252171 -0.0099686501182261779 0.0020933777372635506 -0.013638401324690659 0.0020242589114384578 -0.011086573209777998 0.00072858649945087913
leaf_weight=60.43164473772049 97.585289835929871 252.89442811906338 58.177015468478203 1638.6264212876558 34.207698166370392 26.462919801473618 151.89060594141483 117.86848440766335 17.548032090067863 113.81205290555954 69.458277344703674 31.392314702272415 262.96149769425392 74.064714819192886 20.99195322394371 39.969554126262665 444.76788735389709 1065.0618908256292 36.335438519716263 2076.4134265631437 16.474961370229721 67.477856636047363 50.625516012310982 1540.4358643591404 327.36335147917271 31.052051588892937 40.96527361869812 48.410620778799057 62.417593955993652 1168.2618348151445 69.988036304712296 34.528925254940987 214.98298214375973 94.486736848950386 16.623664975166321 2095.9462056905031 410.72988271713257 174.5637850612402 1303.7656671404839 87.983926892280579 158.65716308355331 13.601196870207785 102.76201279461384 733.68800613284111 130.92693381011486 112.32414683699608 76.51270717382431 85.838176444172859 20.78833144903183 70265.763233095407 10.62952598929405 112.18871402740479 39.886328518390656 51.181480586528778 172.35977219045162 96.6875841319561 446.11685316264629 1026.5261355787516 30.055237993597984 49.886961400508881 8124.9391751289368 10.071248099207876 52.546650052070618 35.3082095682621 797.91424578428268 97.682183682918549 42.647251039743423 11.542924672365187 43.611395239830017 893.88601391017437 18.537953823804855 30.097232133150101 265.83932138979435 88.059727430343628 15.423002928495405 48.611309662461281 37.626590698957443 780.17307063937187 74.112726956605911 153.335209608078 78.02984844148159 80.101140752434731 132.92183522880077 105.14163225889206 138.14051508903503 322.87222512066364 13.592566788196562 248.51272085309029 58.055455222725868 163.59680274128914 28.470588371157646 147.84143431484699 124.68014241755009 216.72610881924629 7323.9420974254608 7.4261071979999533 2097.6149353682995 14.653749480843542 103.09169235825539
leaf_count=309 626 1652 324 4932 238 86 578 751 65 629 302 201 1581 217 138 256 1523 3496 232 6355 53 374 273 6207 1091 179 129 158 404 3456 406 161 742 308 108 7330 1348 523 4001 558 465 48 476 2289 680 442 257 389 123 193353 73 481 164 333 668 280 1787 3918 100 210 22832 63 347 133 5319 310 262 33 125 2759 61 205 1670 559 46 290 130 2585 476 575 327 456 887 682 801 1436 44 893 181 887 120 875 560 1288 21264 51 6127 92 333
internal_value=0 -0.00348946 0.0022895 -0.00264791 0.000830229 -0.0087338 -0.00341911 -0.0031239 -0.00441016 -0.00356022 -0.00121269 0.00256046 -0.0101262 -0.00665725 -0.000815525 0.00121811 0.00143871 -0.00191835 -0.00937149 0.000454885 -0.00486583 -0.00430642 0.00023439 -0.0032639 -0.000384489 -0.00724277 -0.00420266 -0.00727102 -0.00273164 0.000578853 -0.00265748 -0.0118318 -0.00297839 -0.00522587 0.0015325 0.000596608 0.00260368 -0.00043439 0.00111067 -0.00603352 -0.00201108 -0.00903786 0.000180098 0.00085361 -0.000817828 -0.00437645 -0.00431202 -0.00825525 0.000875691 0.00262885 0.00219168 -0.00688169 -0.00937676 -0.00145025 -0.00540665 -0.00234728 -0.00319339 -0.000471281 -0.0058042 -0.00808081 0.00220736 0.00140721 -0.000933952 -0.00806608 -0.0125053 0.00103474 -0.00256039 0.00143484 -0.00328883 0.000169724 -0.0090888 -0.00901889 -0.00817853 -0.00667908 -0.00533422 -0.00989577 -0.00575593 -0.000569374 -0.00185014 -0.00424086 -0.00723932 -0.00657089 -0.0115897 -0.0105463 -0.00458561 -0.00562379 -0.00948159 -0.00261549 -0.00444126 -0.00603087 -0.00897935 -0.00875567 -0.00191296 -0.00920439 0.00197504 0.00177736 0.00196103 -0.00249284 -0.000741843
internal_weight=0 11829 99482.7 10193.3 15579.1 1635.71 8498.1 8096.54 3917.15 3013.06 3575.32 83903.7 1400.71 461.706 971.254 1695.22 12003.7 4179.4 401.554 4235.04 2041.8 1808.6 1530.86 1880.37 2799.79 904.089 775.522 264.392 946.018 1472.68 1610.42 939.007 492.893 277.91 1655.25 4172.36 82372.8 234.995 1365.21 862.584 833.714 215.981 857.442 754.68 2299.03 148.66 207.44 183.423 1422.06 81007.6 10741.8 269.944 157.755 766.236 774.6 607.578 510.891 2091.59 61.4476 112.305 10731.2 2606.27 498.585 87.8549 832.443 1401.27 140.329 1260.94 85.2516 2306.9 141.228 41.6402 755.292 403.215 315.155 352.077 86.2379 1413.01 632.841 305.478 152.143 106.564 146.523 122.69 633.373 461.013 64.774 511.13 262.618 204.562 62.6783 163.264 198.745 233.201 7768.71 1175.69 2107.69 148.797 117.745
internal_count=334920 50987 283933 41775 50193 9212 36479 34153 17793 13041 13363 233740 8380 2358 3532 5296 36830 16360 2326 14043 9509 8168 5162 8009 9878 4752 3485 1395 3897 4838 6613 6022 2065 1323 5040 13685 228578 832 4302 4271 3283 1237 2903 2427 8351 674 937 1015 4565 224276 30923 1396 915 2909 3713 2444 2164 7414 301 614 30850 8018 1828 480 5480 4442 572 3870 363 7813 808 238 4148 2058 1499 2090 420 5054 2469 1378 803 542 935 747 2905 2237 377 2090 1197 1016 358 921 777 1341 22787 3507 6190 604 425
shrinkage=0.00241271


Tree=2
num_leaves=100
num_cat=0
split_feature=4 9 12 12 6 3 14 5 0 9 2 10 7 13 10 4 5 4 4 13 12 1 14 11 7 0 9 14 2 5 10 6 6 5 10 11 10 10 3 8 11 0 1 10 14 3 1 11 7 3 13 1 1 10 2 10 10 12 12 13 3 14 6 6 3 7 12 0 2 6 2 2 2 12 5 2 3 13 11 1 7 12 10 5 12 13 11 13 2 1 12 7 12 1 2 6 9 5 2
split_gain=59522.4 8449.38 6727.68 4244.68 3269.76 2566.85 2560.89 2336 1793.27 1467.01 1441.62 1418.54 1242.06 1199.86 1146.88 1077.89 933.03 899.588 849.687 784.84 758.284 727.489 676.704 649.599 630.492 613.281 611.91 603.309 594.14 585.913 630.205 584.647 583.591 577.649 591.188 784.874 644.927 574.476 534.441 1163.2 530.248 526.046 524.404 518.533 513.408 481.497 472.589 803.401 469.762 462.417 461.11 451.046 445.366 442.142 432.522 425.211 437.142 409.49 406.863 438.083 406.399 441.736 402.852 402.618 399.637 398.276 391.45 379.415 377.329 572.726 892.814 424.912 369.529 669.358 368.305 365.489 355.805 346.384 344.402 341.164 339.252 671.94 343.352 437.769 333.981 329.745 327.166 313.474 309.806 307.37 305.1 296.748 383.796 420.798 295.095 291.206 289.873 293.019 665.029
threshold=0.069656060606060624 82.935799222698407 4.2555875595453392 5.0205801788306017 -0.023110818713450273 17.292167727284088 -0.12104545454545453 0.67155898550724802 -39.499999999999993 82.935799222698407 0.28458411507192 1.0072726158294165 0.7914856231548385 51.500000000000007 1.0463974426029468 0.090731818181818191 -0.17703574542284214 0.040013636363636383 0.046435923753665696 195.50000000000003 4.4005842009683471 0.35655738004625409 -0.029454545454545438 1.1062898594690913 0.7646388519445243 1.5000000000000002 83.837531725888354 -0.091339743589743588 0.38381108381108386 0.91717667950843007 0.99390502906279987 -0.019940668202764973 0.052768339768339785 0.96326241134751733 1.0206654339250523 1.0959074440052687 1.0097245748058745 0.99764850155499474 17.350813885703339 0.015042383231704591 0.98156941797390251 -69.499999999999986 0.35879111389474133 0.98226326442722345 -0.062422647527910671 17.779991820183636 0.32155212291951646 1.073970368744511 1.1580357777071615 18.169445993031363 26.500000000000004 0.31317991631799214 0.34476599007009345 0.9767530262212667 0.11834733893557424 0.99669287466274681 1.0505226619197587 4.4942230200312023 4.7833076179467886 814.50000000000011 17.22974804217742 -0.055939393939393935 0.0062448506639514604 -0.032383135573308235 18.278556134259265 0.24318917682926761 4.2555875595453392 58.000000000000007 0.3357489191128849 -0.02218472926657299 0.32445724412937532 0.32994845360824748 0.26631205673758868 4.816232960488728 0.59574369647954273 0.33797465287033229 18.063705902539464 15.500000000000002 0.91214942755625705 0.33721405430422663 0.89563407233397074 5.0968083143154823 1.0285696519328518 0.77665318683730977 4.3372693810700076 56.500000000000007 1.1050261711695903 47.500000000000007 0.26975051975051983 0.34436724137931013 2.8029010331479993 0.75364917091058603 4.0163424379838117 0.29188064039933598 0.25439137134052392 0.044777124183006563 66.627139784303779 0.91125524632476795 0.29369620732053353
decision_type=2 2 2 2 2 2 2 2 2 2 2 2 2 2 2 2 2 2 2 2 2 2 2 2 2 2 2 2 2 2 2 2 2 2 2 2 2 2 2 2 2 2 2 2 2 2 2 2 2 2 2 2 2 2 2 2 2 2 2 2 2 2 2 2 2 2 2 2 2 2 2 2 2 2 2 2 2 2 2 2 2 2 2 2 2 2 2 2 2 2 2 2 2 2 2 2 2 2 2
left_child=1 3 4 6 9 11 12 19 13 22 20 24 23 31 43 16 -6 48 37 25 -4 29 33 -1 -3 72 28 -22 45 30 -19 54 38 34 35 -2 -37 67 39 46 44 -18 77 88 75 -11 -15 89 -9 -40 -23 -14 -39 -33 57 -41 -57 84 59 68 61 -55 -49 -36 80 -62 85 -10 69 70 -42 -72 -7 -74 -51 -12 -56 -13 -53 -38 82 -82 95 87 -8 -20 -79 -84 -5 -48 -17 92 93 -28 -68 -29 -71 -98 -99
right_child=2 5 10 14 15 7 8 17 18 26 40 42 51 32 -16 90 41 21 66 -21 27 50 -24 -25 -26 -27 91 64 -30 -31 -32 53 -34 -35 63 36 79 52 49 55 58 -43 -44 -45 -46 -47 47 62 -50 74 -52 78 -54 60 76 56 -58 -59 -60 -61 65 -63 -64 -65 -66 -67 94 -69 -70 96 71 -73 73 -75 -76 -77 -78 86 -80 -81 81 -83 83 -85 -86 -87 -88 -89 -90 -91 -92 -93 -94 -95 -96 -97 97 98 -100
leaf_value=-0.017531095503114942 0.0017383022567590224 -0.015035087044210107 -0.012675197533328514 -0.020492754593991105 -0.013394429490557486 -0.018989071413213723 -0.0097664197780153762 -0.015771983212770062 -0.016708055051536039 -0.0067697126247025481 -0.017409984135199678 -0.010792010195021871 -0.018610775641557019 -0.0017606712913223288 -0.017477638001810437 4.0205004847723729e-05 0.0022464218264221254 0.00014664705561416613 -0.008720914588525518 0.0013656600793680099 -0.011612525615291131 -0.0093461847458247999 0.0010302447305761621 -0.00090151621038915444 0.00086347424705664254 -0.0049944957043438062 0.0016504178058123745 0.0028812248274206497 0.00093642216266072345 -0.00209300648827874 -0.015280210516308224 -0.013057650639619124 -0.016309368131647014 0.0018148652894485521 -0.0088201521277056095 0.0017326486467503027 -0.020398895157884556 -0.010721671703851346 0.00020643938381456124 -0.014032942088780542 0.00090568400601614095 -0.0004009878636767169 -0.015269776493859549 0.0027327681763549272 0.0022043986575095076 -0.017978328856862975 -0.01863885306055715 -0.0031157673617783353 -0.0020067764441364742 -0.021146774313951951 0.0016980902978174178 -0.019517307683652816 -0.0030071909265655321 -0.013267159730193068 -0.0039957602641255505 0.0014993225055221274 -0.021210630398399721 -0.019721891030021661 0.0041510448856657903 -0.020102811522709929 -0.013326298562991185 -0.0038136730591628127 -0.018827050170106534 -0.00038421427827741469 -0.01465401481284683 -0.00051628382490432841 -0.014914985097250566 0.00062225360458187655 0.003791876672551717 -0.01662474554526245 -0.018608171640281182 -0.0020291413170063968 -0.016581931675134831 0.0031111028671701704 0.0044867180766857322 0.00063039676098747071 -0.018009225391764236 0.0018520575128672893 -0.0013645016087793522 0.00074425749532334811 0.0015666417068782121 -0.015986645801039905 0.0031912659900327177 0.0033555010106199601 0.0034439529689358193 -0.004448257125007688 -0.01774968087104269 -0.019576860557286701 0.0037929252357630726 -0.0066195628327452381 0.0032181444760017676 -0.0010466327114812266 0.0017783471066667113 -0.011686679013181465 0.00027067337363496767 -0.020102811522709929 0.0035631147299872729 -0.022427310534991699 0.00099573723048993965
leaf_weight=357.13254161179066 341.20225213468075 195.14362120628357 59.517539888620377 21.564926445484161 64.209340065717697 861.47027143836021 346.39692211151123 269.55645410716534 211.23604218661785 88.829411745071411 32.391701817512512 36.481764703989029 29.115141153335571 156.57341615855694 41.243501365184784 444.73573467135429 2068.0471571087837 44.353082731366158 446.14781649410725 31.82817642390728 51.695155873894691 73.34731687605381 1574.0196016430855 35.86295510828495 42.067795559763908 52.514172494411469 40.844222083687782 1162.2263266146183 48.329457268118858 102.11232288181782 214.02194932103157 62.714164823293686 36.282537788152695 302.05698171257973 371.95894794166088 43.473940223455429 57.535443246364594 301.29344899952412 1830.3147107511759 27.311094418168068 410.06152957677841 2097.4582504928112 32.923368662595749 1535.869663760066 1298.6087836027145 132.47061483561993 123.16779696941376 200.51739750802517 39.427959874272346 25.104418009519577 184.0788464397192 15.812111854553221 158.41803516447544 87.561421945691109 407.15107953548431 552.26908038556576 12.01551181077957 54.028149366378784 69743.431472629309 11.019781827926634 35.478428438305855 316.31228904426098 25.524916037917137 99.487527713179588 21.343500152230263 661.93268890678883 19.351207494735718 19.112832933664322 8069.7455952167511 10.37642629444599 54.330973505973816 35.437303155660629 120.03497810661793 29.913910567760468 11.266971111297606 30.021186038851738 26.791901722550392 368.20178839564323 174.80994279682636 12.976416394114493 97.407407224178314 43.889265507459641 11.477731943130491 43.350109785795212 28.756191343069077 571.76717573404312 12.205247059464453 31.18467378616333 11.007787108421324 38.824503347277641 7281.694452881813 248.9796172529459 57.871115729212761 167.09190703928471 215.12329643964767 7.6987516880035392 1888.1396054923534 18.558926790952682 179.21656750142574
leaf_count=2227 1072 1142 324 145 358 5574 1732 1605 1291 400 201 188 187 578 256 1523 6355 148 2161 99 273 361 5133 127 137 221 129 3456 158 380 1263 347 220 945 1812 137 389 1550 6199 156 1348 7330 194 4600 4001 837 796 784 146 173 575 105 619 489 1650 1747 83 357 193353 73 198 1274 166 347 123 2311 113 62 22832 63 347 133 729 87 30 100 171 1147 634 43 310 262 33 125 82 2368 77 205 31 174 21264 893 181 887 721 51 5403 134 590
internal_value=0 -0.00528252 0.00352163 -0.00358495 0.00127197 -0.0110657 -0.00474572 -0.0131785 -0.00410732 -0.001847 0.00394135 -0.00484529 -0.0120481 -0.00294069 0.00191103 0.00220774 0.000696171 -0.00882623 -0.00715014 -0.0168601 0.000358837 -0.00623138 -0.000586826 -0.0160136 -0.0122156 -0.0174054 -0.00634957 0.000886462 -0.0108953 -0.00964671 -0.012632 -0.00516021 -0.00146027 -0.00265838 -0.00411653 -0.0010887 -0.00955098 -0.010469 -0.00128085 -0.003295 0.00400837 0.000913371 -0.000958517 0.00242087 0.00170287 -0.0134792 -0.007223 -0.00942708 -0.0140155 -5.48977e-05 -0.00144871 -0.00495589 -0.00806324 -0.00343767 -0.00748321 0.000321026 0.00101575 -0.0101346 0.00404738 0.00337025 -0.00288985 -0.00586323 -0.0048899 -0.00703995 0.00134194 -0.00116795 -0.00532149 -0.0152701 0.0033945 0.00215932 -0.00142353 -0.0120634 -0.0180498 -0.0126533 -0.0132061 -0.00873239 -0.00486096 0.000171701 -0.00287028 -0.0165079 0.00158629 -0.00388572 0.00220191 -0.00498077 -0.00875382 -0.00632094 0.00122314 -0.0134514 -0.0122855 -0.0157582 0.00303522 -0.00396866 -0.0067057 -0.00906692 -0.000982601 0.00272998 0.0030136 0.00311129 -0.00120224
internal_weight=0 11940.8 98854.4 9231.16 15543.3 2709.68 7621.48 2022.66 7008.75 3587.13 83311.1 687.024 612.733 5066.3 1609.69 11956.1 4229.71 926.898 1942.45 1095.76 1529.79 617.914 2802.71 392.995 237.211 1063.93 784.416 1470.27 269.629 360.487 258.375 2027.12 3039.17 1228.69 926.635 455.188 113.986 690.06 3002.89 1136.2 81781.3 4165.51 449.812 1568.44 1361.02 221.3 544.608 388.035 308.984 1866.69 257.426 219.737 459.711 1164 863.124 591.596 564.285 429.181 80420.3 10676.9 1101.28 403.874 226.042 471.446 1418.58 697.411 1252.39 230.349 10665.9 2596.12 499.83 89.7683 1011.42 149.949 36.3714 62.4129 433.943 416.889 190.622 70.5119 1397.23 141.297 1255.94 86.0125 375.153 1017.91 380.407 42.6624 32.5727 161.992 7726.43 514.787 265.807 207.936 234.475 1169.93 2096.29 2085.92 197.775
internal_count=334920 50987 283933 36914 50193 14073 31882 11188 28602 13363 233740 2885 3280 19717 5032 36830 14043 4478 8885 6710 5162 2727 9878 2354 1279 6611 3485 4838 1395 1791 1411 8611 11106 4745 3800 1641 569 3522 10886 4484 228578 13685 1606 4776 4302 1237 2498 1920 1751 6402 936 926 2169 4619 3992 1986 1830 2171 224276 30923 4272 1763 950 2159 4565 2509 5363 1353 30850 8018 1828 480 6390 816 203 301 1821 1412 739 432 4442 572 3870 363 1814 4529 1224 238 176 970 22787 2090 1197 1016 834 3507 6190 6127 724
shrinkage=0.0037248


Tree=3
num_leaves=100
num_cat=0
split_feature=4 9 12 12 6 14 3 5 0 2 9 10 13 7 10 4 5 4 4 12 13 1 14 11 7 14 9 4 6 8 3 0 5 10 11 10 2 6 5 10 10 12 14 2 0 0 10 1 10 11 13 7 3 1 1 10 2 3 14 6 7 12 12 1 3 0 13 7 12 2 12 3 11 12 14 1 11 13 12 9 2 7 12 1 13 14 1 2 7 9 1 2 6 3 9 11 12 3 8
split_gain=58425.8 8001.69 6698.22 4113.58 3213.81 2421.28 2393.59 2143.74 1714.41 1433.87 1415.85 1347.47 1156.38 1150.72 1099.37 1067.79 896.002 838.824 800.459 728.705 727.418 691.77 660.541 600.393 590.43 588.74 578.161 571.174 736.296 698.318 872.888 561.294 561.171 567.036 757.297 605.967 559.272 557.111 550.439 588.694 531.425 529.001 535.557 636.928 884.529 518.148 502.058 499.877 450.726 448.318 444.812 436.003 424.221 422.499 420.292 418.967 407.676 391.394 415.919 383.461 380.27 375.809 375.211 369.648 367.295 352.426 333.99 333.121 582.469 332.884 627.464 332.718 323.811 318.848 317.783 314.15 312.639 312.291 302.446 292.839 289.042 284.92 367.085 398.946 282.032 281.888 671.851 281.482 281.272 454.142 279.379 279.05 277.15 276.293 276.173 274.579 273.648 272.877 342.835
threshold=0.069656060606060624 82.935799222698407 4.2555875595453392 5.0205801788306017 -0.023110818713450273 -0.12104545454545453 17.292167727284088 0.67155898550724802 -39.499999999999993 0.28458411507192 82.935799222698407 1.0072726158294165 51.500000000000007 0.7914856231548385 1.0463974426029468 0.090731818181818191 -0.17703574542284214 0.040013636363636383 0.046435923753665696 4.4005842009683471 195.50000000000003 0.35655738004625409 -0.029454545454545438 1.1062898594690913 0.7646388519445243 -0.068348484848484839 83.837531725888354 0.050854545454545451 0.030321174271367976 0.05010830032445731 17.347800969708043 1.5000000000000002 0.96326241134751733 1.0206654339250523 1.0959074440052687 1.0097245748058745 0.38381108381108386 -0.019940668202764973 0.91717667950843007 0.99390502906279987 0.99764850155499474 4.7833076179467886 -0.03314242424242423 0.33232427616926513 -112.49999999999999 -69.499999999999986 0.98226326442722345 0.35879111389474133 1.0104084103714712 1.0136251464114034 26.500000000000004 1.1580357777071615 18.278556134259265 0.31317991631799214 0.34476599007009345 0.9767530262212667 0.11834733893557424 17.22974804217742 -0.055939393939393935 -0.032383135573308235 0.24318917682926761 4.4942230200312023 4.2555875595453392 0.38821734486164033 17.017357524144533 58.000000000000007 15.500000000000002 0.89563407233397074 5.0968083143154823 0.26631205673758868 4.816232960488728 18.063705902539464 0.91214942755625705 4.3372693810700076 -0.066241901776384504 0.33721405430422663 1.1050261711695903 56.500000000000007 2.8029010331479993 68.846688034188048 0.26975051975051983 0.75364917091058603 4.0163424379838117 0.29188064039933598 21.500000000000004 -0.081106060606060598 0.29322779170147556 0.25439137134052392 0.90831938542007362 80.50030525030526 0.32620012437811025 0.30259784075573554 -0.0084837044487713082 18.169445993031363 69.787542527098665 1.1311804515454948 4.3757372435704527 17.621032332545358 0.0044539271514498343
decision_type=2 2 2 2 2 2 2 2 2 2 2 2 2 2 2 2 2 2 2 2 2 2 2 2 2 2 2 2 2 2 2 2 2 2 2 2 2 2 2 2 2 2 2 2 2 2 2 2 2 2 2 2 2 2 2 2 2 2 2 2 2 2 2 2 2 2 2 2 2 2 2 2 2 2 2 2 2 2 2 2 2 2 2 2 2 2 2 2 2 2 2 2 2 2 2 2 2 2 2
left_child=1 3 4 5 10 13 11 20 12 19 22 24 37 23 46 16 94 51 40 -4 31 38 32 -1 -3 -21 36 28 29 30 64 69 33 34 -2 -36 49 56 39 -19 65 42 43 44 48 -18 80 66 -11 -12 -23 -9 67 -15 -42 -39 61 58 -57 -35 -59 73 77 93 74 -10 -13 -27 -69 -8 -71 -58 -55 -7 -14 -37 -68 97 -17 -29 -5 82 83 -28 -51 86 -43 -64 -47 -90 -25 -88 -50 -32 -6 -74 -33 -20 -99
right_child=2 6 9 14 15 8 7 17 18 41 26 47 27 53 -16 78 45 21 62 25 -22 50 -24 90 -26 52 81 79 -30 -31 63 96 -34 59 35 75 -38 55 -40 -41 54 85 -44 -45 -46 88 -48 -49 92 84 -52 -53 -54 72 -56 57 71 60 -60 -61 -62 -63 87 -65 -66 -67 76 68 -70 70 -72 -73 95 -75 -76 -77 -78 -79 -80 -81 -82 -83 -84 -85 -86 -87 91 -89 89 -91 -92 -93 -94 -95 -96 -97 -98 98 -100
leaf_value=-0.013156206669375748 0.0013482154120685237 -0.011327445110584896 -0.0095888160443652459 -0.015303660755903023 -0.015485961385233555 -0.0074235918773374312 -0.01421685181983888 -0.011869784969879733 -0.012554208292733205 -0.0017784718778219724 -0.0041558810525208411 -0.0081894182596415552 -0.011131134661910583 -0.013940226099887647 -0.013119553974386623 3.1087965489368578e-05 0.0017439282976543138 0.00011341391517611337 -0.0084248251259472547 -0.0060729849539804762 0.0010584220609389651 -0.0071096139904425135 0.00079803721158974044 0.0035090643021090393 0.00066864637277085255 0.0018762621229639147 0.0012798529150992229 -0.015182984110748227 -0.012647190402575337 0.0028864426900341027 -0.00067113262614906658 -0.012548266728060413 0.0014077903139676357 -0.0067144548091456549 0.0013438262500589425 -0.015227636810750188 0.00072523691935957196 -0.0098700931102205722 -0.0016123316914098799 -0.011506564050531624 -0.0081368979759063442 -0.017667860345173241 0.0027293334771115599 0.0021337140228175774 0.0023413468702133274 0.00024463755743126946 0.0021233557164508604 -0.011499540863798428 -0.013000929063480616 -0.00045415701184054293 0.0013169054366662064 -0.0015461456780754461 -0.011877662446571296 -0.014587114274356256 -0.0023127431449234612 -0.010023723727104463 -0.0030677766373247706 -0.010068352860418172 -0.0029288804534524436 -0.00029686349148634014 -0.00039881499561851335 -0.014745048598036884 -0.011238647346180033 -0.016382961316812335 -0.0101638335798926 0.00048163875828524693 0.001436726192089025 0.0011339855865695151 -0.011832061417144824 -0.012464128588590292 0.0024188866280769536 -0.013495575528169374 0.00013370057458649367 0.0026792821325824063 -0.0022032432121412782 0.00057621436332334582 -0.013310635994331729 -0.0034123671990501539 0.0025027080834432638 7.6812717376543269e-05 0.0029527380768439248 -0.00080773135126256364 0.0013793650251764391 -0.0088543291994799943 -0.014193765080230777 0.0032283319683822443 -0.011385839342967569 0.00020937995113782197 -0.00088472132590102545 -0.0081938686483787656 -0.016348685229249191 0.0020768391654602211 0.0026669881768232664 -0.014987803915552553 -0.0034909652348947828 -0.012231654163175166 0.0011850079884198087 -0.0077977076083587376 0.00036606066591427086
leaf_weight=367.89419969916344 340.14638784527779 200.24066875874996 60.823000535368919 22.323234021663666 36.309411153197289 352.32139268517494 889.50920766592026 276.8947374522686 217.33143109083176 71.206300988793373 71.475020408630371 37.167649671435356 43.222960472106934 30.048616781830788 42.475153684616089 444.7039036154747 2059.7434287965298 44.341724097728729 278.82553511857986 101.49330672621727 31.752789556980133 74.544901967048645 1571.1316867023706 28.313653856515884 42.003662630915642 1209.12086366117 40.724156230688095 10.708875089883803 58.51813517510891 200.65706196427345 694.1960171610117 19.336741387844086 301.08115588128567 377.75251924991608 43.339546710252762 59.581698060035706 48.249017834663391 64.141740038990974 102.48669654130936 219.71760727465153 306.92589291930199 16.366845950484276 10275.705241605639 635.98381903767586 146.76087161898613 1651.3087650388479 1528.3622246384621 33.797102227807045 90.095876589417458 13.887264400720595 183.52609878778458 39.566379964351654 20.707677662372589 16.354843974113464 159.26037275791168 89.596682101488113 410.01244546473026 36.303267672657967 318.43758299946785 99.555447399616241 662.53691504895687 55.863636299967766 19.853685289621353 13.305971980094908 153.56578847765923 19.092140108346939 366.99043890833855 93.806917011737823 42.649471521377563 123.45247426629066 29.748518839478493 27.638795018196106 158.42181511223316 28.580165565013885 153.76180958747864 12.959193184971808 12.582062885165213 576.25846967101097 7239.7174116373062 1707.3594509065151 10.933152586221693 249.44126904010773 57.688239455223083 170.50115275382996 141.09686957299709 69644.169394314289 13.645647957921026 215.02057449519634 357.59190873801708 90.053722262382507 7.6062371730804434 288.38582715392113 10.687424182891844 11.597880259156225 29.392517745494843 16.809213727712631 33.637108907103539 88.534368559718132 85.638374239206314
leaf_count=2227 1072 1142 324 145 238 1732 5574 1605 1291 273 302 188 247 187 256 1523 6355 148 1437 473 99 361 5133 75 137 3698 129 70 351 566 2467 116 945 1812 137 389 158 347 380 1263 1550 119 29708 1919 433 5570 4600 194 554 48 575 146 120 105 619 489 1650 198 1274 347 2311 357 113 92 842 62 1147 301 246 729 87 171 533 82 588 43 77 2368 21264 5808 31 893 181 887 887 194585 79 721 1293 467 52 877 31 75 120 101 105 443 281
internal_value=0 -0.0040468 0.00274032 -0.00275431 0.000985838 -0.00363879 -0.00839457 -0.00996199 -0.00315274 0.00306922 -0.00142327 -0.00371455 -0.0022618 -0.0091246 0.00148287 0.00171382 0.00053898 -0.00672055 -0.00545957 0.000277918 -0.0126676 -0.00476565 -0.000453126 -0.0120478 -0.0092474 0.000686784 -0.00485524 -0.00112599 -0.00255815 -0.00209339 -0.00302756 -0.0130654 -0.00204557 -0.00315958 -0.00083984 -0.00726249 -0.00826715 -0.00395371 -0.00733444 -0.0095553 -0.00794891 0.00312177 0.0025357 0.000451603 -0.00290461 0.000707375 0.00188004 -0.000739657 -0.00738106 -0.010183 -0.00111713 -0.010579 0.00118893 -0.0037985 -0.00614723 -0.0026418 -0.00571062 -0.00222293 -0.00448678 -0.00537589 -0.000901127 -0.00769894 -0.00407599 -0.00119276 -0.00679135 -0.0115015 0.000132956 0.00139001 -0.00291855 -0.0135347 -0.00957415 -0.00372632 -0.00220785 -0.00666554 -0.00416223 -0.0124043 0.000947881 -0.00483308 0.00235967 -1.8303e-05 -0.00930181 -0.00304706 -0.00512425 -0.00690046 -0.0129626 0.00321585 0.000484917 -0.00075831 -0.000309814 -0.00235512 -0.000695925 0.0014686 -0.0113394 -0.00090639 -0.0101199 -0.00105246 -0.00382797 -0.00664036 -0.00378369
internal_weight=0 12049.9 98229 9288.61 15507.4 7684.52 2761.3 2068.51 7059.07 82721.6 3598.61 692.782 5092.33 625.449 1604.09 11908.8 4224.4 941.078 1966.74 1528.6 1127.44 624.617 2805.55 403.814 242.244 1467.78 793.063 3046.89 1328.83 1270.31 1069.65 1095.68 1234.42 933.335 456.027 115.88 274.708 2045.43 366.546 264.059 702.61 81193 11230.4 954.734 318.75 4158.7 1561.62 450.537 171.99 226.459 258.071 316.461 1366.28 221.634 466.186 1171.02 874.416 1106.87 408.034 477.308 698.84 436.765 1264.13 719.1 350.551 236.424 416.74 1345.58 136.456 1042.71 153.201 437.651 191.586 380.902 196.985 72.5409 379.573 1029.26 7684.42 1718.07 33.2564 518.355 268.914 211.225 154.984 69962.6 318.398 234.874 2098.95 447.646 35.9199 302.031 100.783 705.794 65.7019 175.231 52.9739 452.998 174.173
internal_count=334920 50987 283933 36914 50193 31882 14073 11188 28602 233740 13363 2885 19717 3280 5032 36830 14043 4478 8885 5162 6710 2727 9878 2354 1279 4838 3485 11106 5228 4877 4311 6611 4745 3800 1641 569 1395 8611 1791 1411 3522 228578 32918 3210 1291 13685 4776 1606 858 1237 936 1751 4365 926 2169 4619 3992 4272 1763 2159 2509 2171 5363 2634 1677 1353 1412 4245 547 6390 816 1821 739 1814 835 432 1224 4529 22787 5878 176 2090 1197 1016 935 195660 1075 834 7330 1760 127 956 585 2542 358 634 221 2161 724
shrinkage=0.00290903


Tree=4
num_leaves=100
num_cat=0
split_feature=4 9 12 12 6 14 3 5 4 10 2 1 9 10 7 10 4 13 7 4 11 13 12 13 1 14 1 11 3 14 7 3 5 11 5 10 10 9 0 14 6 9 2 0 1 9 10 0 0 13 11 3 1 9 0 11 7 0 12 13 1 10 2 6 2 2 7 9 6 2 2 12 3 1 1 6 13 11 9 3 11 7 12 10 5 12 0 13 9 11 2 10 2 6 6 9 9 0 8
split_gain=57371.4 7872.25 6360.59 4177.6 3058.75 2387.34 2226.07 2024.7 1570.31 1454.4 1352.1 1301.4 1272.41 1270.14 1179.97 1066.74 980.322 900.96 832.538 808.284 806.067 708.336 683.441 652.541 647.61 634.491 592.532 556.879 767.175 551.926 548.253 547.863 531.674 529.506 527.712 560.483 518.283 699.419 513.14 498.875 493.75 493.248 515.216 481.211 480.669 470.227 468.25 467.8 461.841 449.665 446.655 557.929 422.229 416.807 415.346 413.145 405.869 400.792 400.136 407.478 392.015 371.932 369.286 562.24 847.739 381.636 363.061 355.731 349.362 339.251 335.86 635.646 335.281 403.074 332.626 332.052 330.867 315.755 313.212 307.901 304.338 302.624 611.691 397.969 455.807 299.812 297.668 294.245 292.45 376.977 290.784 290.502 278.515 278.496 301.475 401.139 419.753 389.672 324.274
threshold=0.070413636363636387 82.935799222698407 4.2555875595453392 5.0205801788306017 -0.023110818713450273 -0.10627272727272725 17.292167727284088 0.67155898550724802 0.052078787878787898 0.99764850155499474 0.28458411507192 0.34476599007009345 82.935799222698407 1.0072726158294165 0.7914856231548385 1.0463974426029468 0.090731818181818191 69.500000000000014 -0.27613824838187723 0.040013636363636383 1.1050261711695903 195.50000000000003 4.4005842009683471 143.50000000000003 0.35655738004625409 -0.029454545454545438 0.32535081986010933 0.99348974817668922 18.169445993031363 -0.091339743589743588 0.7646388519445243 16.939051150895107 0.96326241134751733 0.98156941797390251 0.91717667950843007 0.99390502906279987 1.0206654339250523 78.195165117308576 1.5000000000000002 -0.062422647527910671 -0.037059714795008906 83.837531725888354 0.38381108381108386 -69.499999999999986 0.35879111389474133 81.657372324233322 0.98226326442722345 -43.499999999999993 -69.499999999999986 26.500000000000004 0.99765176209372375 18.085899802241268 0.31218286332695544 78.149724911295181 1.0000000180025095e-35 1.0136251464114034 1.1580357777071615 -62.499999999999993 4.7833076179467886 814.50000000000011 0.38455235484595024 1.0402478114478118 0.3357489191128849 -0.02218472926657299 0.32445724412937532 0.32994845360824748 -0.27613824838187723 82.669438589027052 -0.032383135573308235 0.33797465287033229 0.26631205673758868 4.816232960488728 17.317523179460537 0.31888099070261527 0.33999999999999914 -0.055142857142857139 15.500000000000002 0.91214942755625705 74.257927442200511 18.169445993031363 1.1050261711695903 0.89563407233397074 5.0968083143154823 1.0285696519328518 0.77665318683730977 2.8029010331479993 58.000000000000007 47.500000000000007 77.437183886135486 1.0665234598528046 0.26975051975051983 1.0281466340000793 0.25439137134052392 -0.051103084290330301 -0.019940668202764973 81.727159678985032 78.584458210781136 -161.49999999999997 0.024736842105263168
decision_type=2 2 2 2 2 2 2 2 2 2 2 2 2 2 2 2 2 2 2 2 2 2 2 2 2 2 2 2 2 2 2 2 2 2 2 2 2 2 2 2 2 2 2 2 2 2 2 2 2 2 2 2 2 2 2 2 2 2 2 2 2 2 2 2 2 2 2 2 2 2 2 2 2 2 2 2 2 2 2 2 2 2 2 2 2 2 2 2 2 2 2 2 2 2 2 2 2 2 2
left_child=1 3 4 5 12 14 13 21 9 47 22 23 25 30 20 46 18 27 -6 56 45 38 -4 75 34 32 -22 40 67 92 -3 57 36 39 35 -21 37 53 70 69 -10 42 55 -20 76 78 90 60 -19 -26 61 -52 -16 -2 -25 -14 -9 -13 59 62 74 -33 63 64 -35 -66 -31 72 -38 -12 -8 -72 73 -29 -7 -11 -15 -54 -1 -76 -78 83 -83 -68 87 -18 -49 -85 -75 -90 -5 -67 -24 -77 98 96 97 -96 -95
right_child=2 6 10 15 16 8 7 19 17 11 33 31 41 44 52 -17 85 48 43 24 26 -23 29 54 49 -27 -28 28 -30 66 -32 50 -34 58 -36 -37 68 -39 -40 -41 -42 -43 -44 -45 -46 -47 -48 86 -50 -51 51 -53 77 -55 -56 -57 -58 -59 -60 -61 -62 -63 -64 -65 65 91 81 -69 -70 -71 71 -73 -74 88 79 93 80 -79 -80 -81 -82 82 -84 84 -86 -87 -88 -89 89 -91 -92 -93 -94 94 95 -97 -98 -99 -100
leaf_value=-0.0045395393074511639 0.00064760336574123955 -0.0098128687564258063 -0.0085251036645837847 -0.013339676268471925 -0.010830050305074029 -0.0079248877673099797 -0.012403176949368606 -0.010417505407416821 -0.0095857489391270555 -0.011058433751888563 -0.011979976518683091 -0.0091755693535373085 -0.0035732544433339126 -0.0072468687146487456 -0.011810715903900227 -0.011495927138477097 2.7990967748103876e-05 0.0011832684671575749 0.0015831852037648136 1.0137333826978294e-05 0.0031846030112900581 0.00098474188732976579 -0.013679982068532671 -3.8501872887675013e-06 -0.0063913711252820095 0.00072796124321938219 -0.013624631696765298 -0.00017529976651200094 -0.01007776902522416 -0.013554202899676966 0.00062507168652329724 -0.01195282330888049 0.0012655182422231723 0.00064174370197104765 -0.0014155603970878938 -0.0099874032677421919 -0.0059140136509335528 0.00085786087337546158 -0.0034356940592074649 0.0015421363596552654 -0.0021936135398141253 -0.0026861764538895667 0.00074946486496470189 -0.00024114282170443295 -0.01012049922306105 -0.0040619133175744046 0.0019365072234145721 -0.010545564744040491 -0.0015225843152885765 0.0011893686203835487 0.00090569833657666121 -0.014227013891216802 -0.012072388009881758 -0.01182846398322863 -0.0089410859291760986 -0.011309611097406429 -0.001387202698974617 -0.00096849204550141464 0.002934702392723689 -0.013438975581159045 -0.010745032797967449 0.0006474661370951283 0.0026790368826371059 0.0021316422162375526 -0.012543397817780614 0.0026075047614696986 0.0019444378316853276 -0.0084478136344825726 -0.00027969125566199829 0.00038989830221890009 -0.010894109805532706 0.0021233893234264031 -0.00055727123894675965 -0.0021208481137010753 -0.0016513775690427711 8.6413749593969755e-05 0.0013023227668512271 -0.0013640952788985452 -0.012105452879213875 -0.013028457328493359 -0.011673558991015893 0.0011178830614999094 -0.010636231816637106 0.0020335529890711189 0.0023702904782741852 0.0022663494775579281 -0.00067371465257448377 -0.013372853695897722 -0.011374568914897356 -0.0042693098750680291 0.0025261942010710702 -0.01561325286644589 -0.0012521950270921972 -0.0082434357993507387 0.0013700402693231706 -0.011925294706330327 -0.0012711537314465538 -0.0074147858304615399 -0.00047922797073344522
leaf_weight=42.10507133603096 28.242813795804977 210.21600016951561 59.033127069473267 23.053160309791565 44.64374640583992 119.50302763283253 927.343914270401 284.00924879312515 144.11451707780361 74.306281298398972 32.792584374547005 85.897224873304367 71.224885329604149 38.828941598534584 35.075633674860001 43.82154344022274 444.67239418625832 913.15475137531757 1993.356427654624 47.225965157151222 55.797385305166245 33.308447986841202 27.18730840086937 258.72317811846733 77.214969590306282 1552.978020593524 19.915339961647987 244.4678680151701 82.185765668749809 11.938417658209799 42.305952742695808 38.123529836535454 293.62485592067242 404.19074438512325 108.13835774362087 232.25192917883396 374.44530284404755 355.88744847476482 54.069165021181107 1283.1936474591494 112.68706351518631 505.50089779496193 47.885314077138901 2055.2719410508871 34.786655649542809 69.906439021229744 1620.0184782743454 280.3855799883604 854.65889036655426 188.32897157967091 790.88239866495132 17.427188128232956 20.709644734859467 55.706327587366104 42.350328147411346 150.16800107061863 39.703082159161568 80.834606721997261 68598.220365405083 11.383022993803023 81.806935578584671 28.766557082533836 7953.0398498773575 2062.4606869369745 56.33992412686348 27.46988345682621 1142.6703258305788 54.655002623796463 96.96620175242424 29.454263284802437 131.91888330876827 32.775447189807892 952.8027385622263 222.75268888473511 219.5821628421545 63.783657357096672 369.46978312730789 277.61728659272194 423.09108236432076 18.013911053538322 13.098717108368872 100.22205087542534 44.853975206613541 11.520098373293875 42.996920064091682 7198.0116074085236 23.141602024435997 35.143259808421135 72.490592300891876 187.26219557225704 12.451131269335745 7.8808682411909095 23.554807335138321 349.28053651750088 41.924467414617538 45.395879700779915 251.41448056697845 224.9596613496542 42.195428848266602
leaf_count=182 93 1164 309 145 257 617 5637 1605 796 435 198 468 296 193 210 257 1523 2876 6171 159 149 104 176 877 370 5080 129 835 463 76 138 232 925 1334 399 1297 1766 1154 224 3995 437 2020 156 7152 195 296 4896 1598 3206 592 2533 116 126 334 228 880 146 287 193018 72 472 91 22793 6152 346 77 3449 291 338 99 758 97 3360 864 818 215 1158 1027 2560 113 78 319 255 34 125 21264 81 224 435 819 36 56 84 1825 128 278 917 1137 145
internal_value=0 -0.00352022 0.00249462 -0.00237839 0.00092692 -0.00318187 -0.00737158 -0.00870847 -0.00265066 -0.00402612 0.00278666 -0.00303826 -0.00123128 -0.003304 -0.00713122 0.00138721 0.00157656 -0.00151245 0.000531786 -0.00589171 -0.00931615 -0.0110415 0.000297301 -0.00470969 -0.0041976 -0.000389734 -0.00123687 -0.00269549 -0.00218001 0.000658956 -0.00806416 -0.000801529 -0.00183035 0.00283303 -0.00637794 -0.00829803 -0.00282791 -0.000762393 -0.011391 0.00118734 -0.00634201 -0.00422678 -0.00711888 0.000657072 -0.000668998 -0.0104593 0.00172822 -0.00726771 -0.00012489 -0.00101496 3.57696e-05 0.000579436 -0.00312829 -0.00763117 -0.001261 -0.00882073 -0.00930995 -0.00519663 0.00286102 0.00238067 -0.00552139 -0.00653398 0.0023978 0.00152353 -0.00100574 -0.00826815 0.000971948 -0.00180578 -0.00475507 -0.00612674 -0.0117849 -0.00830353 -0.00158966 -0.00294276 -0.00432472 -0.00565943 0.00011123 -0.00210746 -0.0114207 -0.00251396 0.000858043 0.00109785 -0.0025162 0.00152331 -0.00384366 0.00213612 -0.00979291 -0.00956937 -0.00434493 -0.00625221 -0.00777562 -0.00145451 -0.00791093 -0.00526571 -0.00562311 -0.00438453 -0.00372406 -0.00603479 -0.00740657
internal_weight=0 12528.5 97234.1 9663.49 15268.6 7964.15 2864.99 2156.29 7019.93 3178.7 81965.5 2436.27 3532.63 708.706 944.218 1699.34 11736 3841.23 4093.27 976.873 610.815 1179.42 1499.12 1394.33 653.16 2757.85 75.7127 2073.42 1816.62 1440.09 252.522 1041.93 1204.87 80466.4 387.616 279.478 911.248 439.837 1146.11 1345.44 256.802 774.779 269.278 4048.63 456.184 535.103 1655.52 742.433 1767.81 265.544 875.2 808.31 333.403 83.9491 301.074 221.393 323.712 166.732 79121 10522.8 438.906 66.8901 10511.4 2558.34 495.881 91.6907 1389.35 1734.43 471.412 62.2468 1092.04 164.694 1679.78 726.973 357.099 1093.26 421.397 298.327 465.196 237.596 382.569 1377.41 145.076 1232.33 89.6603 7642.68 303.527 46.6634 482.505 259.753 35.5043 35.3508 50.7421 1018.95 955.17 563.694 518.299 266.884 391.476
internal_count=334920 52320 282600 38006 49409 32672 14314 11388 27993 13611 233191 9912 13042 2926 4679 5334 36367 14382 13580 4568 3316 6820 5051 6185 2817 9690 278 8300 7067 4742 1302 3727 4610 228140 1855 1456 3685 1581 6716 4292 1233 3352 1332 13323 1624 3038 5077 3699 6082 962 2972 2649 1363 427 1105 1176 1751 755 223848 30830 2020 323 30758 7965 1813 479 4482 6604 2104 297 6492 855 6313 2953 1548 5080 1429 1153 2742 931 1236 4406 574 3832 383 22787 1679 258 2118 1254 181 133 260 4645 4430 2460 2182 1265 1970
shrinkage=0.0026455


Tree=5
num_leaves=100
num_cat=0
split_feature=4 9 12 12 6 14 3 5 4 0 2 9 10 7 10 8 3 4 13 3 5 4 11 13 12 12 6 14 1 1 14 11 3 11 5 7 5 10 10 11 10 14 0 0 9 2 6 1 10 0 13 13 9 0 12 2 14 0 3 1 11 13 1 10 3 7 7 6 5 7 9 6 6 3 1 13 2 12 2 12 11 12 7 12 10 5 11 6 1 9 1 12 6 9 11 6 2 9 13
split_gain=56351.3 7482.79 6333.53 4053.42 3007.5 2270.06 2086.6 1873.11 1509.16 1378.7 1344.9 1229.66 1210 1105.29 1025.86 973.422 1164.57 971.263 873.659 835.944 798.633 757.424 752.332 661.064 658.052 627.025 620.521 619.573 617.496 564.947 532.916 531.321 727.202 528.164 516.811 516.029 498.02 526.251 497.674 677.917 547.587 485.07 475.694 473.734 468.001 487.345 463.558 459.444 454.746 452.135 442.979 434.176 434.168 404.854 400.467 399.17 627.944 844.803 414.675 397.763 390.46 430.503 391.222 462.179 383.53 378.857 360.549 352.432 348.921 346.617 338.712 333.416 330.225 324.481 387.847 319.47 319.015 309.762 305.877 598.916 298.33 297.199 296.729 583.081 389.734 435.303 291.769 289.84 288.633 287.787 285.564 282.326 520.088 277.835 350.425 275.231 488.811 279.976 274.623
threshold=0.070413636363636387 82.935799222698407 4.2555875595453392 5.0205801788306017 -0.023110818713450273 -0.10627272727272725 17.292167727284088 0.67155898550724802 0.052078787878787898 -20.499999999999996 0.28458411507192 82.935799222698407 1.0072726158294165 0.7914856231548385 1.0463974426029468 0.059154873951449707 17.33038672134111 0.090731818181818191 69.500000000000014 18.169445993031363 -0.17703574542284214 0.040013636363636383 1.1050261711695903 195.50000000000003 4.4005842009683471 4.4942230200312023 0.04977311076020751 -0.029454545454545438 0.35655738004625409 0.32535081986010933 -0.091339743589743588 0.99348974817668922 18.169445993031363 0.98156941797390251 0.96326241134751733 0.7646388519445243 0.91717667950843007 0.99390502906279987 1.0206654339250523 1.0959074440052687 1.0097245748058745 -0.062422647527910671 -69.499999999999986 1.5000000000000002 83.837531725888354 0.38381108381108386 -0.037059714795008906 0.35879111389474133 0.98226326442722345 -69.499999999999986 22.500000000000004 26.500000000000004 81.657372324233322 2.5000000000000004 4.7833076179467886 0.3357489191128849 -0.034803030303030301 -112.49999999999999 17.363228801202851 0.31218286332695544 0.99765176209372375 89.500000000000014 0.34323199120933356 0.99785737401757091 17.779991820183636 1.1580357777071615 0.93681858422381137 -0.024461990464291785 0.35652128623188467 -0.27613824838187723 82.669438589027052 -0.032383135573308235 0.0037540025593629941 17.317523179460537 0.31888099070261527 15.500000000000002 0.33797465287033229 3.7494348669884654 0.26631205673758868 4.816232960488728 0.91214942755625705 2.8029010331479993 0.89563407233397074 5.0968083143154823 1.0285696519328518 0.77665318683730977 1.1050261711695903 0.026403521978949768 0.40818666889463695 74.257927442200511 0.33721405430422663 4.0163424379838117 1.0000000180025095e-35 77.437183886135486 1.0665234598528046 -0.02218472926657299 0.32445724412937532 66.627139784303779 47.500000000000007
decision_type=2 2 2 2 2 2 2 2 2 2 2 2 2 2 2 2 2 2 2 2 2 2 2 2 2 2 2 2 2 2 2 2 2 2 2 2 2 2 2 2 2 2 2 2 2 2 2 2 2 2 2 2 2 2 2 2 2 2 2 2 2 2 2 2 2 2 2 2 2 2 2 2 2 2 2 2 2 2 2 2 2 2 2 2 2 2 2 2 2 2 2 2 2 2 2 2 2 2 2
left_child=1 3 4 5 11 13 12 23 9 15 24 27 35 22 48 16 25 20 31 26 -6 65 52 43 -4 68 60 34 36 -24 -26 46 70 41 38 -3 37 -23 39 -2 -41 76 -22 78 45 64 -10 75 -5 -20 -17 -30 89 -11 55 56 57 58 -35 -15 61 -18 63 72 -13 -9 -65 -60 87 -32 73 -40 -62 74 -33 -14 -12 -70 -8 -80 -61 -19 84 -84 -71 98 -77 -7 -64 -1 -42 -79 -93 -76 -95 96 -58 -97 -86
right_child=2 6 10 14 17 8 7 21 18 53 33 44 47 59 -16 50 19 81 49 -21 42 28 29 -25 30 -27 -28 -29 51 -31 69 32 -34 54 -36 -37 -38 -39 71 40 90 -43 -44 -45 -46 -47 -48 -49 -50 -51 -52 -53 -54 -55 -56 -57 95 -59 67 80 62 -63 88 66 -66 -67 -68 -69 77 82 -72 -73 -74 -75 93 86 -78 91 79 -81 -82 -83 83 -85 85 -87 -88 -89 -90 -91 -92 92 -94 94 -96 97 -98 -99 -100
leaf_value=-0.0058648549495356611 0.0015811747958343889 -0.012524118034626618 -0.01091286382636731 -0.0099778198827694207 -0.011322667321436605 -0.0025090724247170625 -0.015747802562298331 -0.013280559893839562 -0.012236880912883878 -0.01330776096753351 -0.015215171461583495 -0.0057655806699887704 -0.0093022700366643622 -0.015008150300445571 -0.014625417607063802 -0.0086370281723964215 -0.012077809415074716 3.655735249014712e-05 0.0015499022134375143 -0.016027287496031477 0.0021103323180107721 1.3239209097932231e-05 0.0041924295279373424 0.001289151414693226 -0.0101387632334995 -0.015795120252101037 -0.016492864551894915 0.00095243121179025764 -0.0082197946098015798 -0.017228903135518243 -0.017161186345928451 -0.00022883294376910981 -0.012850800363330903 -0.017043153090639491 0.0016580086115850017 0.00081759104271082988 -0.001842212515039166 -0.012741064514223195 -0.0076132444142350125 0.0017139612686773644 -0.017259415914931769 0.002021890741266714 -0.00029040595058596881 -0.0044493846061666757 -0.003484862389765999 0.00098061502668608607 -0.0028492893956418644 -0.012907940693820993 0.0025415149945575348 -0.0019808933340482336 0.0030961013073338055 0.0015579099330899158 -0.0052533204487492597 -0.0069523836235231571 0.0038616055485548141 0.003516028564817615 0.0016085576400328579 0.0034796769184268863 -0.013093973526924341 -0.015325490475505767 -0.016655882340488291 0.002810982705885692 0.00081103435407394603 -0.0011500707406108678 -0.015030109540601667 -0.0018054448025589455 -0.010233359927552827 0.00041953334530726361 -0.0065485586629428789 0.0025519680471997527 -0.010808164149745694 -0.00036500597881047056 -0.0046723648679093017 -0.00072675702763946577 -0.0027551963509537063 0.0017063752414067049 0.00050969037807129544 -0.016009717571439361 -0.01387549005629277 0.0027880396229103444 -0.0017754239677882579 0.0029769583883535776 0.0014640338188088432 -0.013554766453825725 0.0026693747410691106 0.0031142167097656481 -0.014837997225877492 -0.016324977930056279 -0.011488269825627586 -0.015373235169026084 0.0009103295786881281 -0.013756328555689076 0.0031264426718975121 -0.014452358265563257 -0.005517108887336258 -0.01511235983126537 -0.0089852081163438006 0.0031730687145867078 -0.016928324646118709
leaf_weight=42.558993443846703 325.42757892608643 215.07503582537174 60.219720557332039 36.126841992139816 66.248237818479538 229.3452675640583 953.7126389592886 290.90599125623703 147.41406886279583 281.39281295239925 33.714691981673241 91.344126090407372 39.500731751322746 36.042938366532326 44.977120608091354 45.602090328931808 89.985244855284691 444.64117678999901 910.44964388012886 58.614142268896103 1983.0693093836308 47.224785163998604 55.353730112314224 33.228000953793526 51.697598233819008 113.84200097620487 38.013159468770027 1550.1367885768414 78.401965141296387 20.564092889428139 12.312065452337263 244.57364919781685 84.159714713692665 48.657363131642342 292.68973802030087 42.240075036883354 108.51427546143532 237.72813650965691 379.83540414273739 42.305829674005508 60.053881883621216 1278.17974999547 2038.3426896780729 54.522016629576683 508.84138169884682 47.795310273766518 113.29528999328613 35.614883929491043 1612.0676902681589 857.88852366805077 278.61724464595318 187.76897385716438 70.586019232869148 215.60231292247772 68085.007063195109 7901.3795524537563 311.65175814926624 130.425587028265 37.527248591184616 21.30172897875309 49.812659606337547 32.084174290299416 601.84550078213215 473.40452678501606 134.62014807760715 39.838093474507332 59.960961356759071 62.896812915802002 331.28919450938702 1137.0423960536718 55.783164337277412 97.033986195921898 63.969842165708542 954.12102346122265 223.92085678875446 368.26143737137318 29.42531917989254 104.65168662369251 135.24498526751995 32.599964424967766 278.5529737919569 7156.5770038366318 99.940336674451828 45.958808958530426 11.461445420980452 42.739485844969749 13.45621709525585 20.114455595612526 24.170354068279266 435.02465863525867 12.775178283452986 62.392035484313965 34.515750616788864 74.497770443558693 189.23401720821857 10.253103345632551 63.924467414617538 1892.1372207850218 36.250098302960396
leaf_count=182 1032 1164 309 181 346 859 5637 1605 796 1566 198 392 193 210 257 218 487 1523 2876 354 6152 159 149 104 260 681 232 5080 370 129 76 835 463 310 925 138 399 1297 1766 133 374 3995 7082 224 2020 156 437 195 4896 3206 802 592 296 972 193018 22809 989 373 210 126 310 92 1955 1695 784 146 308 212 1476 3449 291 338 263 3360 864 1158 99 638 758 97 1027 21264 319 255 34 125 78 123 130 2560 42 354 96 435 819 61 312 5554 224
internal_value=0 -0.0045591 0.00327888 -0.0030883 0.00121354 -0.00412361 -0.00946425 -0.0111469 -0.00343939 -0.00520728 0.00366543 -0.00160314 -0.00428135 -0.00915882 0.00181837 -0.00422813 -0.00499848 0.00206726 -0.00196777 -0.00310966 0.000695479 -0.00758842 -0.011906 -0.0140612 0.000388939 -0.00814288 -0.00258138 -0.000508399 -0.00542739 -0.00161003 0.000862426 -0.00349696 -0.00283167 0.00372686 -0.00237969 -0.010334 -0.00820447 -0.0106273 -0.00366784 -0.000993723 -0.00827164 0.00155546 0.000893464 -0.0144949 -0.00546432 -0.00914357 -0.00815736 -0.000872162 0.0022671 -0.000163022 0.00144581 -0.00132216 -0.0133319 -0.0105507 0.00376394 0.00312816 0.00192981 -0.00300683 -0.00868162 -0.00405465 -0.00220236 -0.00816451 -0.00163072 -0.00353337 -0.011285 -0.0118984 -0.00217121 -0.0046303 -0.00702932 0.00127286 -0.00234766 -0.00613836 -0.00991861 -0.00206779 -0.00381522 0.000145488 -0.00788687 -0.008624 -0.0149833 -0.010639 -0.00273802 0.00280496 0.00143811 -0.00326695 0.00199735 -0.00497461 0.00112316 -0.00362308 0.000336161 -0.0145259 -0.0140722 -0.0120352 -0.00774317 -0.00561391 -0.0080411 0.00253554 -0.000194541 0.00307452 -0.0122205
internal_weight=0 12631.6 96614.5 9717.72 15231.7 8024.55 2913.84 2199.69 7064.56 3209.23 81382.8 3542.86 714.148 959.985 1693.17 2712.23 2388.01 11688.9 3855.34 1491.86 4087.66 990.382 624.087 1209.31 1497.62 896.15 1433.25 2760.26 659.638 75.9178 1437.4 2087 1826.29 79885.2 1210.12 257.315 393.467 284.953 917.432 440.562 115.135 1341.32 4021.41 1176.08 782.601 273.76 260.709 456.833 1648.19 1768.34 324.219 266.171 548.17 496.995 78543.9 10458.9 2557.47 279.507 149.081 335.898 1395.23 122.069 1273.16 647.148 225.964 330.744 533.365 100.424 782.308 1385.7 1742.13 476.869 113.783 1686.35 732.226 421.218 63.14 532.849 1121.56 167.845 299.855 7601.22 1373.39 145.899 1227.49 90.451 381.718 249.46 626.016 477.584 72.8291 201.559 96.9078 487.653 263.732 2277.97 375.576 1902.39 47.7115
internal_count=334920 52320 282600 38006 49409 32672 14314 11388 27993 13611 233191 13042 2926 4679 5334 11073 10053 36367 14382 5826 13580 4568 3316 6820 5051 4227 5472 9690 2817 278 4742 8300 7067 228140 4610 1302 1855 1456 3685 1581 549 4292 13234 6716 3352 1332 1233 1624 5077 6082 1020 962 3038 2538 223848 30830 8021 1105 732 1363 5240 579 4661 2576 1176 1751 2003 422 3546 4482 6604 2104 573 6313 2953 1429 297 2564 6492 855 1153 22787 4406 574 3832 383 1236 982 2085 2742 416 1088 450 2118 1254 6916 1301 5615 258
shrinkage=0.00348979


Tree=6
num_leaves=100
num_cat=0
split_feature=4 9 12 12 6 14 3 5 0 2 9 10 7 13 10 4 7 4 11 4 1 6 7 12 13 14 10 1 11 14 6 5 7 6 10 11 10 3 8 14 3 0 1 9 2 1 11 10 1 0 9 9 12 2 14 0 2 12 7 10 1 11 3 6 2 10 6 1 3 7 13 10 7 12 2 12 8 11 11 2 12 10 14 1 5 14 6 2 6 12 3 9 12 2 1 12 9 11 12
split_gain=55359.5 7122.73 6306.47 3934.3 2957.16 2161.58 1960.16 1738.77 1452.38 1337.67 1188.85 1154.09 1037.82 1006.57 987.866 962.259 775.14 716.185 703.848 691.834 686.287 713.216 932.478 634.149 618.727 605.088 581.581 539.751 526.822 520.602 517.733 502.515 486.663 480.571 478.124 655.651 517.926 476.59 1104.55 471.899 468.012 466.711 455.413 444.714 461.746 443.574 675.474 441.721 439.713 439.002 433.924 402.32 400.798 397.673 617.144 815.683 385.734 514.69 385.464 383.345 375.515 370.115 368.468 349.663 333.664 323.608 318.477 312.706 311.687 357.122 308.665 306.755 301.08 502.507 300.675 294.604 291.365 282.438 280.124 279.845 565.521 278.017 276.114 274.057 273.906 273.076 272.566 472.569 272.08 294.551 350.386 270.14 268.956 268.906 265.642 265.556 265.498 263.09 262.201
threshold=0.070413636363636387 82.935799222698407 4.2555875595453392 5.0205801788306017 -0.023110818713450273 -0.10627272727272725 17.292167727284088 0.67155898550724802 -39.499999999999993 0.28458411507192 82.935799222698407 1.0072726158294165 0.7914856231548385 51.500000000000007 1.0463974426029468 0.090731818181818191 -0.27613824838187723 0.017527272727272735 1.1050261711695903 0.056874242424242431 0.33629480389289995 -0.024020239985619671 0.9172845931245529 4.4005842009683471 195.50000000000003 -0.029454545454545438 0.99785737401757091 0.32535081986010933 0.98156941797390251 -0.068348484848484839 0.047791741556534519 0.96326241134751733 0.7646388519445243 -0.019940668202764973 1.0206654339250523 1.0959074440052687 1.0097245748058745 17.343636875541723 0.015042383231704591 -0.062422647527910671 18.169445993031363 -69.499999999999986 0.3452164054027404 83.837531725888354 0.38381108381108386 0.32155212291951646 1.073970368744511 0.98226326442722345 0.35879111389474133 1.5000000000000002 85.352192701664549 81.657372324233322 4.7833076179467886 0.3357489191128849 -0.034803030303030301 -112.49999999999999 0.25439137134052392 4.4942230200312023 0.75364917091058603 0.9767530262212667 0.31218286332695544 1.0136251464114034 18.278556134259265 0.0062448506639514604 0.22318007662835251 0.99475319593787603 -0.032383135573308235 0.42826923076923046 17.28338955341021 0.24318917682926761 15.500000000000002 1.0505226619197587 0.89563407233397074 5.0968083143154823 0.33797465287033229 2.8029010331479993 0.0020645329169919394 0.91214942755625705 1.1050261711695903 0.26631205673758868 4.816232960488728 1.0170938994143526 -0.12104545454545453 0.34436724137931013 0.59574369647954273 -0.055939393939393935 -0.02218472926657299 0.32445724412937532 -0.065475457474397328 3.9796379800581989 17.199363854029063 66.627139784303779 4.0517471391904847 0.26975051975051983 0.33721405430422663 4.0517471391904847 74.257927442200511 0.99348974817668922 4.2268071048866842
decision_type=2 2 2 2 2 2 2 2 2 2 2 2 2 2 2 2 2 2 2 2 2 2 2 2 2 2 2 2 2 2 2 2 2 2 2 2 2 2 2 2 2 2 2 2 2 2 2 2 2 2 2 2 2 2 2 2 2 2 2 2 2 2 2 2 2 2 2 2 2 2 2 2 2 2 2 2 2 2 2 2 2 2 2 2 2 2 2 2 2 2 2 2 2 2 2 2 2 2 2
left_child=1 3 4 5 10 12 11 24 13 23 25 32 18 33 47 16 -6 -9 51 26 50 22 -22 -4 49 31 64 -20 39 -25 37 34 -3 56 35 -2 -37 38 45 74 -39 -18 76 44 61 -15 83 93 70 79 -19 96 53 54 55 58 57 97 81 -35 -14 -12 72 -48 -10 -40 -36 -23 85 -70 -13 -67 -31 -74 -11 -17 -28 -62 -72 -8 -81 -30 -54 -47 -42 -61 87 -56 -79 -90 -91 -88 -66 -5 -38 -21 -1 -7 -43
right_child=2 6 9 14 15 8 7 17 19 28 43 48 60 30 -16 75 41 20 27 95 21 67 -24 29 -26 -27 42 -29 52 62 -32 -33 -34 59 66 36 94 40 65 -41 84 98 -44 -45 -46 46 63 -49 -50 -51 -52 -53 82 -55 86 -57 -58 -59 -60 68 77 -63 -64 -65 92 71 -68 -69 69 -71 78 -73 73 -75 -76 -77 -78 88 -80 80 -82 -83 -84 -85 -86 -87 91 -89 89 90 -92 -93 -94 -95 -96 -97 -98 -99 -100
leaf_value=-0.0050467399972091657 0.0013791128582832264 -0.010655531509306034 -0.0093098763420802581 -0.014514777294349664 -0.011833901455349558 -0.0093996590157655914 -0.013336276622996031 -0.012682980289478899 -0.011754092717124269 -0.012888119602134242 -0.0039192480456399469 -0.0079560777122512256 -0.012718891817740653 -0.0010809813721835617 -0.012408056913151696 3.1791098114161023e-05 0.0018124733994489162 -0.012906580923151728 0.0036750255945710753 -0.0041506669706248755 -0.011300604919622774 0.00011837076915690935 -0.00051646456488228343 -0.0059780539404627551 0.0011237062376971295 0.00082971122046992163 -0.0044319536893029955 -0.01453721025348749 0.002688974789318167 0.0019639580987501214 -0.011092433025889088 0.0014463453897776365 0.00071205073169305683 -0.009517801079295507 -0.0065289583692924522 0.0014953077240458358 -0.014571514056766242 0.00034806270170198379 -0.012840516108668789 0.0017650613669994606 -0.015183561286069642 -0.00018940249987290316 -0.0020233955763895419 -0.0030107216756079897 0.00085430637475758422 -0.014246339758274777 -0.0024576552122850515 0.0022209317277403929 -0.010975311405310077 -0.0038374840959509897 -0.0037342133626072239 -0.004525052492688037 -0.0095142519385277742 0.0030784695485881431 0.0014030780830115641 0.0030462640412132242 -0.0022598506061267216 -0.014537962104417648 -0.011642168900640095 -0.0088037605678355866 -0.012976017081563072 -0.012269036251062845 -0.011276042960422322 -0.014006239893433895 -0.0097541795677259131 0.0011803126285747196 -0.00031717430119753901 -0.015514583905355598 -0.0097782793160963912 -0.00025970246213592144 0.0014886663028242098 -0.016260720942445558 0.0012553388967994328 -0.011311808051060589 0.00044364103943194533 0.0026036960899374849 -0.009060464933559784 0.0027754502540339129 -0.012577801497231571 -0.011783616485862042 0.0024374666280011711 -0.010872204010405924 0.0033863630692547537 -0.0049200483986180446 0.0036813572379353842 -0.0028682495013655591 -0.012790705636511321 -0.0076874178638123283 -0.0014769214398938958 0.002393247408868023 -0.01604856597963019 0.002776275228314445 0.00079803702649584082 0.0029478968404225937 0.00079297147778522638 -0.00031761629304962184 -0.013021215573416837 -0.0045216157858367452 -0.014633864221544887
leaf_weight=43.004549905657768 324.44473116099834 219.79288423061371 61.374954879283905 24.154401585459709 46.528717011213303 140.53945997357368 979.13845022022724 150.23167906701565 264.12267848849297 34.60574634373188 73.020234391093254 40.15672954916954 36.977785304188728 150.79920297861099 46.093679934740067 444.61027312278748 1977.4945881813765 154.08120691776276 54.912278443574905 628.33980876207352 190.55027140676975 300.8207899928093 124.59270356595516 100.44508145749569 33.148225769400597 1547.3206745535135 233.98255154490471 21.189423218369484 43.370923697948456 1176.7209640294313 46.893556609749794 291.76211336255074 42.174787744879723 69.238551095128059 385.11507868766785 42.167466089129448 61.843892931938171 1826.1725759804249 16.597506195306778 1273.2040331810713 28.836402073502541 2046.1646934896708 266.30823314189911 512.13321100175381 47.706099599599838 124.51164063811302 201.16298380494118 1604.1728147119284 36.418482109904289 54.967630252242088 70.692617788910866 71.253778398036957 15.591764092445372 7847.568236887455 310.6925063431263 129.55331347882748 243.86028362810612 71.661158248782158 86.948913037776947 91.569977506995201 21.874019831418991 157.38371813297272 21.677859887480736 28.070434048771858 49.988303482532501 565.60439373552799 97.101061850786209 12.522585853934286 39.262379735708237 652.49944071471691 367.062703743577 9.6363175958394987 91.374848276376724 44.431190460920334 29.396647602319717 7115.4136009216309 281.54868032038212 92.091777071356773 13.801837056875227 138.46448029577732 32.425658091902733 21.120721310377121 67559.074874639511 38.838126733899117 9.651718467473982 355.81037810444832 10.532538667321203 64.964898094534874 141.70382319390774 13.923766791820524 31.757806107401848 1880.5405376106501 41.564662382006645 12.61096842586994 12.752977088093756 232.71880032122135 446.54909414052963 398.26788388192654 11.876054376363752
leaf_count=182 1032 1164 309 145 257 718 5637 856 1460 198 296 193 210 540 257 1523 6171 890 149 2618 1040 993 426 452 104 5080 971 129 126 3640 255 925 138 354 1766 133 374 6107 97 3995 179 7076 1002 2020 156 759 771 4896 195 224 284 296 85 22809 989 373 921 434 491 459 126 880 117 170 259 1794 338 79 203 2243 1158 63 294 239 99 21264 1430 259 78 758 97 115 192933 166 26 1391 61 312 519 40 209 5554 130 36 42 799 2560 1674 76
internal_value=0 -0.00393282 0.00286962 -0.00267065 0.00105789 -0.00355926 -0.0080975 -0.00951033 -0.00297213 0.00321031 -0.00138996 -0.00369518 -0.00783859 -0.00210557 0.00158705 0.00180489 0.000605625 -0.00651165 -0.0101432 -0.00518755 -0.00542507 -0.00378108 -0.00703706 0.000338791 -0.0119407 -0.000441601 -0.00675662 -0.00139591 0.00326447 0.000751565 -0.000986143 -0.00206039 -0.00882544 -0.00375905 -0.00316836 -0.00086251 -0.00709115 -0.000828163 -0.00239399 0.0013568 0.000125124 0.000749049 -0.00527833 -0.00470522 -0.00782559 -0.00554947 -0.0072659 0.00198017 -0.000757164 -0.0123001 -0.0100218 -0.0113302 0.00329719 0.00273687 0.00168467 -0.00260015 -0.00551864 -0.00682041 -0.0074305 -0.00251501 -0.00350011 -0.0096228 0.0012582 -0.00387182 -0.0100062 0.000503137 -0.00527813 -0.000506391 -0.00208937 -0.000799949 0.000126709 0.000888144 0.00146522 -0.00285621 -0.00676477 0.00245244 -0.00695974 -0.0023689 0.000978923 -0.0127046 -0.00908523 -0.00175225 0.00338339 -0.0120289 -0.0104528 -0.00408313 0.00221583 -0.000169001 -0.00153871 -0.00365893 -0.0104275 0.00268957 -0.00496352 -0.00852487 -0.0119448 -0.00311471 -0.0123207 -0.00579398 -0.000272755
internal_weight=0 12731.4 95998 9770.33 15194.8 8083.3 2961.04 2241.64 7108.06 80803.2 3552.75 719.407 975.238 5109.48 1687.03 11642.1 4082.06 1003.49 636.909 1998.57 853.26 628.486 315.143 1496.02 1238.14 2762.51 1137.52 76.1017 79307.2 1434.65 3046.77 1215.19 261.968 2062.71 923.425 441.209 116.764 2999.88 1135.22 1337.21 1864.66 4035.54 781.839 790.243 278.11 543.382 392.583 1640.94 457.44 1205 224.774 560.807 77970 10395.3 2547.72 280.994 854.329 610.469 151.441 1208.38 338.329 230.404 1334.2 229.233 355.676 591.838 482.216 313.343 1139.14 691.762 421.021 575.241 1312.53 135.806 64.0024 7560.02 515.531 301.351 380.865 1150.03 170.89 64.4916 67574.7 163.35 38.4881 447.38 2266.73 375.657 279.477 187.385 45.6816 1891.07 91.553 36.7654 74.5969 861.059 489.554 538.807 2058.04
internal_count=334920 52320 282600 38006 49409 32672 14314 11388 27993 233191 13042 2926 4679 19324 5334 36367 13580 4568 3316 8669 3712 2538 1466 5051 6820 9690 5252 278 228140 4742 10927 4610 1302 8397 3685 1581 549 10672 4360 4292 6312 13323 3403 3352 1332 2406 1866 5077 1624 6716 1174 3038 223848 30830 8021 1105 3747 2826 732 4650 1363 1176 4290 941 1849 1954 2104 1072 4296 2446 1429 1857 4173 533 297 22787 2401 1153 1236 6492 855 241 193018 925 205 1850 6916 1301 1027 768 249 5615 389 181 416 3417 2742 2392 7152
shrinkage=0.00306523


Tree=7
num_leaves=100
num_cat=0
split_feature=4 9 12 12 6 14 3 5 4 0 2 9 10 10 8 3 7 4 13 3 5 4 12 12 13 6 14 1 11 3 14 11 11 7 11 5 10 14 5 9 0 6 9 2 0 0 1 10 13 13 0 6 8 3 12 13 3 7 1 9 2 6 2 2 7 8 9 3 1 13 2 13 13 8 12 11 6 2 12 12 7 9 3 9 11 7 12 10 5 13 1 8 11 13 11 5 2 10 9
split_gain=56477.8 7518.48 6336.11 4066.03 3013.02 2278.03 2094.86 1875.47 1713.46 1466.25 1346.4 1236.31 1203.06 1033.24 1028.4 1263.48 1023.77 972.035 964.911 840.256 811.93 765.358 661.472 657.447 644.746 624.898 619.899 611.79 577.365 725.158 540.462 528.215 512.957 506.959 491.968 486.997 519.721 486.936 476.382 691.617 476.167 475.268 473.551 492.053 470.549 464.862 455.221 454.629 450.422 441.424 427.589 411.837 403.146 581.556 400.51 403.39 389.497 382.967 373.104 369.552 368.128 556.275 821.57 374.338 348.075 338.501 336.055 352.386 378.374 325.029 321.931 318.983 313.117 421.372 306.86 399.097 304.118 301.993 598.974 297.253 295.546 317.03 294.29 293.901 361.676 291.845 609.308 412.544 456.602 293.94 290.206 301.435 288.992 287.505 281.878 277.627 605.21 329.943 285.497
threshold=0.070413636363636387 82.935799222698407 4.2555875595453392 5.0205801788306017 -0.023110818713450273 -0.12104545454545453 17.292167727284088 0.67155898550724802 0.052078787878787898 -20.499999999999996 0.28458411507192 82.935799222698407 1.0072726158294165 1.0463974426029468 0.059154873951449707 17.350813885703339 0.7914856231548385 0.090731818181818191 69.500000000000014 18.169445993031363 -0.17703574542284214 0.040013636363636383 4.4005842009683471 4.4942230200312023 195.50000000000003 0.04977311076020751 -0.064287878787878769 0.35655738004625409 0.99348974817668922 18.169445993031363 -0.091339743589743588 0.98156941797390251 1.1062898594690913 0.7646388519445243 0.9766804581763765 0.91717667950843007 0.99390502906279987 -0.062422647527910671 0.76415136455525678 81.589878020822653 -69.499999999999986 -0.037059714795008906 83.837531725888354 0.38381108381108386 1.5000000000000002 2.5000000000000004 0.35879111389474133 0.98226326442722345 22.500000000000004 26.500000000000004 -69.499999999999986 -0.051103084290330301 -0.018000000000000002 17.841868920302197 4.7833076179467886 814.50000000000011 17.779991820183636 1.1580357777071615 0.31317991631799214 76.202918005636988 0.3357489191128849 -0.02218472926657299 0.32445724412937532 0.32994845360824748 -0.27613824838187723 -0.0037265316095784228 82.669438589027052 17.317523179460537 0.31888099070261527 58.500000000000007 0.33797465287033229 15.500000000000002 127.50000000000001 -0.018000000000000002 3.7494348669884654 0.99765176209372375 0.044777124183006563 0.26631205673758868 4.816232960488728 2.8029010331479993 0.78186356589148354 74.993425175580782 17.500607259110904 77.437183886135486 1.0665234598528046 0.89817995419928465 5.0968083143154823 1.0285696519328518 0.77665318683730977 47.500000000000007 0.40818666889463695 0.027248062759756674 1.1050261711695903 93.500000000000014 0.91214942755625705 0.91125524632476795 0.29369620732053353 0.98109632743768815 66.627139784303779
decision_type=2 2 2 2 2 2 2 2 2 2 2 2 2 2 2 2 2 2 2 2 2 2 2 2 2 2 2 2 2 2 2 2 2 2 2 2 2 2 2 2 2 2 2 2 2 2 2 2 2 2 2 2 2 2 2 2 2 2 2 2 2 2 2 2 2 2 2 2 2 2 2 2 2 2 2 2 2 2 2 2 2 2 2 2 2 2 2 2 2 2 2 2 2 2 2 2 2 2 2
left_child=1 3 4 5 11 16 12 24 9 14 22 26 33 47 15 23 32 20 28 25 -6 57 -4 59 44 34 38 35 41 66 -24 37 -1 -3 -17 36 -23 70 39 65 -22 -10 43 56 77 -11 71 -5 -16 -29 -20 -36 53 82 55 60 -13 -9 -18 -7 61 62 -33 -64 -32 -2 67 68 -30 74 -12 -14 73 -61 75 -28 85 -8 -79 -19 90 -82 -53 -70 -85 87 -87 -66 89 -89 91 93 -73 -54 -60 98 -97 -98 -63
right_child=2 6 10 13 17 8 7 21 18 45 31 42 46 -15 48 19 58 79 50 -21 40 27 30 -25 -26 -27 69 49 29 -31 64 54 -34 -35 51 -37 -38 -39 -40 -41 -42 -43 -44 -45 -46 -47 -48 -49 -50 -51 -52 52 80 -55 -56 -57 -58 -59 94 72 -62 95 63 -65 76 -67 -68 -69 83 -71 -72 92 -74 -75 -76 -77 -78 78 -80 -81 81 -83 -84 84 -86 86 -88 88 -90 -91 -92 -93 -94 -95 -96 96 97 -99 -100
leaf_value=-0.0061871164412466116 -0.006360634263648462 -0.00524100601699856 -0.0046008000640740147 -0.0041873184267730446 -0.0048182078915708065 -0.0011642048351789254 -0.0066198130506164949 -0.0056044886567772441 -0.0050778533555337468 -0.0056851741142920345 -0.0064217129764203096 -0.0024285828340682926 -0.003909611505066508 -0.0061815114981613965 -0.0036872781516425978 -0.0050656578925164621 -0.006428781986456549 1.5351318689570985e-05 0.00062088638881530511 -0.0066961755321354325 0.00088596197409267132 -1.0091457981161892e-07 -0.0043076440778811722 -0.0066367583998305649 0.00050751330527677827 -0.0069884157018776181 -0.0025418555225612755 -0.0035006125142052762 -0.00018360879649268532 -0.0054335008198719576 -0.0072303046941976316 0.00035215422085882068 -0.00037480675099403171 0.00032748269208684717 0.0011389358698828927 -0.00079242237839841035 -0.0053240566605158527 0.00084878870003708207 -3.4918310215289688e-05 0.000388148099438792 -0.0001221432490525468 -0.0012012331561317715 -0.0014656659232963483 0.00041127660940350284 -0.0018857323794741613 -0.0029201740622478017 -0.0053920924107557838 0.0010664345696644302 0.0013003250637127213 0.00065108543083223299 -0.0007983213925435291 7.9587599057482787e-05 -0.0031175670338292648 0.00027635290224363679 0.001620815190980728 -0.0073712072534337187 -0.0063532951650151406 -0.0007598577664553655 -0.0066661296608754965 -0.0010053221470203162 0.0014786528360756987 -0.0063686588809310522 -0.0068006274941495659 -0.00076375061079788286 0.0011301457815814794 -0.0024320316900797549 -0.0045284475407767174 -0.00032553353435211396 -0.001179812869142309 0.00080684654100613481 0.00021426767966692791 0.00071021250980013266 -0.0012603974922080349 -0.0044373162508141058 0.00041676062140757417 -0.00024695303282598597 -0.0080718582308076346 -0.005845194569899374 0.0011648168369344134 0.0012495810957465108 -0.0049592813921452679 0.00032770496448276487 -0.0061182274930398003 -0.0060796453256807157 -0.0023466099582509317 0.00074253026131439735 -0.0057312337292365388 0.0011218871143549298 0.0013104937204997207 -0.0074168948258891152 -0.0079000731510980894 0.0011113845411826989 -0.0061841773269470102 -0.0005623034125242732 -0.00051606347390010295 -0.0082371608358343829 -0.008641965147448926 0.00081451821623452082 0.0013932666151831928
leaf_weight=389.52727469801903 102.1408813148737 215.52227213978767 60.042823895812035 36.128360465168953 65.640639737248421 186.29972130060196 952.66706828773022 289.80552898347378 164.35307981073856 303.94524139165878 33.578460723161697 91.180828392505646 39.469288125634193 44.753356009721756 45.131046324968338 59.733555272221565 32.613221138715744 444.64273953437805 940.71710719168186 60.034300848841667 1983.4066345095634 47.108512029051781 51.291858702898026 121.05662575364113 32.591985493898392 37.745495721697807 236.04618115723133 77.723722919821739 247.73527690768242 83.727557882666588 12.277068704366682 403.474788621068 35.547940447926521 41.893211781978607 205.7601842880249 107.83873571455479 238.45835945010185 1278.3480886518955 207.74918313324451 89.605322688817978 2038.1137376725674 115.54756678640842 508.48612354695797 47.78731045126915 54.292795315384865 228.5275946855545 35.732826828956604 1611.6979525238276 278.90467321872711 187.44804532825947 882.90141624212265 19.772809073328972 200.32811324298382 69.46582105755806 68091.23470506072 11.462893202900885 133.93482054769993 39.815357849001884 17.583600908517838 90.630404025316238 7899.7235722541809 10.22268985211849 57.221267104148865 35.838070496916771 1131.5591082721949 87.242708176374435 56.779319822788239 972.32586735486984 229.51328584551811 875.75671036541462 29.430429935455322 366.82136952877045 113.97144597768784 501.10733963549137 638.62459732592106 522.31086710095406 8.614636763930319 134.89965949952602 32.438201755285263 7157.4570891857147 25.649643123149872 473.83092655241489 97.400313079357147 78.598199605941772 190.95451033115387 98.141600519418716 45.72179239988327 11.477610379457472 42.902871042490005 35.096146240830421 14.970952957868574 86.93648025393486 13.524472892284392 178.7639437764883 176.23353208601475 19.442972674965858 8.3047673702239972 168.91040024161339 1844.9103747010231
leaf_count=2243 604 1164 309 181 346 711 5637 1605 888 1708 198 392 193 257 218 323 191 1523 2976 362 6152 159 260 726 104 232 1055 370 854 463 76 1334 127 138 602 399 1297 3995 715 293 7082 446 2020 156 224 1030 195 4896 802 592 3284 65 934 226 193018 72 784 146 105 337 22793 61 346 133 3402 381 296 3436 887 2711 99 1158 439 2582 2081 1850 58 758 97 21264 140 1543 574 458 828 308 255 34 125 224 100 254 78 646 636 133 59 531 5368
internal_value=0 -0.00191905 0.00137622 -0.00130015 0.00050913 -0.00173578 -0.00398497 -0.00469347 -0.0015035 -0.00226635 0.00153847 -0.000674565 -0.00180365 0.00076265 -0.00185186 -0.00216495 -0.00436098 0.00086769 -0.00084905 -0.00132502 0.000291648 -0.00319726 0.000162283 -0.00343378 -0.00591856 -0.00110572 -0.000214011 -0.00228532 -0.00151629 -0.0012211 0.00036129 0.00156426 -0.00570105 -0.00433476 -0.000950727 -0.00344434 -0.00444579 0.000652863 -0.00171413 -0.00296455 0.000375052 -0.00347752 -0.00230101 -0.00385747 -0.00609691 -0.00449849 -0.000373398 0.000951247 0.000605662 -0.000565807 -6.62203e-05 -0.000771687 -0.00110853 -0.0030816 0.00157982 0.00131297 -0.00476363 -0.0050193 -0.00184527 -0.0029991 0.0013225 0.000838424 -0.000552684 -0.00447577 0.0005341 -0.00455086 -0.0010225 -0.000906704 -0.00166338 0.00010726 -0.00332215 5.37708e-05 -0.00348349 -0.00391167 -0.000331306 -0.000961264 0.000603501 -0.00630105 -0.00448631 0.00117739 -0.000732942 5.62043e-05 -0.00507235 -0.00239793 -0.00343512 0.000658256 -0.00131492 0.000890738 -0.00213691 -0.0053126 -0.00155241 -0.00134849 0.000465059 -0.00191261 -0.00107401 0.00117507 -0.000479735 0.000371363 0.00135049
internal_weight=0 12615.3 96619.4 9707.21 15230.1 8014.63 2908.05 2195.09 7363.12 3399.97 81389.2 3540.87 712.963 1692.58 2867.49 2543.46 651.506 11689.3 3963.15 1530.39 4087.16 988.198 1497.13 1013.07 1206.89 1470.36 2759.48 658.577 2139.53 1859.63 1437.08 79892.1 425.075 257.415 1432.61 393.406 285.567 1341.36 486.738 278.989 4021.52 279.901 781.389 272.903 1174.3 532.473 455.548 1647.83 324.036 265.172 1823.62 1372.88 1167.12 186.639 78550.7 10459.5 225.116 329.621 226.43 892.009 10448 2548.33 496.534 93.0593 1385.79 189.384 1775.91 1719.13 746.801 2272.74 63.0089 419.815 705.709 591.738 1396.98 758.357 1373.51 1120 167.338 7602.1 980.48 499.481 117.173 499.066 269.553 1364.9 143.863 1221.04 89.4766 46.5738 480.999 466.029 380.346 379.092 193.817 2051.79 196.658 177.215 1855.13
internal_count=334920 52320 282600 38006 49409 32672 14314 11388 29370 14554 233191 13042 2926 5334 11816 10796 3302 36367 14816 6001 13580 4568 5051 4795 6820 5639 9690 2817 8556 7222 4742 228140 2370 1302 5407 1855 1456 4292 1993 1278 13234 1334 3352 1332 6716 2738 1624 5077 1020 962 6260 5084 4482 865 223848 30830 1176 1751 932 4069 30758 7965 1813 479 4482 985 6759 6463 3027 7697 297 1429 3358 2919 4986 2905 4406 6492 855 22787 3617 1683 639 2173 1286 4348 563 3785 383 258 1934 1834 1236 1580 741 6152 723 590 5429
shrinkage=0.00146471


Tree=8
num_leaves=100
num_cat=0
split_feature=4 9 12 12 6 14 3 5 4 0 2 9 10 8 3 10 4 7 13 3 5 4 12 14 13 12 6 1 11 3 11 14 5 7 9 10 9 0 11 14 11 10 9 2 6 13 13 0 13 0 0 12 6 2 14 0 10 8 3 3 7 11 5 3 9 1 6 5 9 3 1 7 7 12 13 8 12 13 2 7 9 9 11 3 1 8 13 5 2 3 14 5 11 2 12 5 9 9 5
split_gain=54757.1 6909.14 6289.41 3861.7 2926.06 2096.18 1884.79 1659.06 1597.29 1341.89 1333.54 1164.87 1117.9 976.135 1163.15 966.329 956.549 920.217 917.31 773.164 760.186 690.131 620.078 596.136 588.017 587.264 569.666 548.38 532.812 669.531 525.951 510.358 493.9 483.44 476.661 467.834 774.796 466.311 465 464.081 456.152 433.564 431.949 447.294 431.311 429.057 428.192 417.229 415.648 414.316 413.095 401.029 398.911 396.733 609.517 795.928 391.06 382.241 546.715 375.655 367.285 363.803 360.616 359.872 349.049 344.254 331.45 325.058 318.829 339.922 362.868 304.723 297.676 489.125 296.214 394.919 292.905 290.597 290.293 286.132 309.316 278.665 336.762 276.937 275.242 292.132 279.691 271.765 388.848 418.16 269.443 325.858 264.351 263.298 544.951 261.52 453.327 260.18 260.018
threshold=0.070413636363636387 82.935799222698407 4.2555875595453392 5.0205801788306017 -0.023110818713450273 -0.12104545454545453 17.292167727284088 0.67155898550724802 0.052078787878787898 -20.499999999999996 0.28458411507192 82.935799222698407 1.0074212114726062 0.059154873951449707 17.350813885703339 1.0463974426029468 0.090731818181818191 0.7914856231548385 69.500000000000014 18.169445993031363 -0.17703574542284214 0.041677272727272743 4.4005842009683471 -0.029454545454545438 195.50000000000003 4.4942230200312023 0.04977311076020751 0.35655738004625409 0.99348974817668922 18.169445993031363 0.98156941797390251 -0.068348484848484839 0.96326241134751733 0.7646388519445243 84.393690450698344 1.0176032989410866 78.195165117308576 -40.499999999999993 1.1062898594690913 -0.062422647527910671 0.9766804581763765 0.98226326442722345 83.837531725888354 0.38381108381108386 -0.037059714795008906 22.500000000000004 15.500000000000002 1.5000000000000002 26.500000000000004 2.5000000000000004 -69.499999999999986 4.7833076179467886 -0.051103084290330301 0.3357489191128849 -0.034803030303030301 -112.49999999999999 1.0089629472039701 -0.018000000000000002 17.841868920302197 17.363228801202851 1.1580357777071615 1.1050261711695903 0.56255945389423057 18.278556134259265 76.202918005636988 0.31317991631799214 -0.024461990464291785 0.81249999999999989 82.669438589027052 17.317523179460537 0.31888099070261527 0.75626869346552927 0.89563407233397074 5.0968083143154823 127.50000000000001 -0.018000000000000002 2.8029010331479993 47.500000000000007 0.33797465287033229 0.78186356589148354 74.993425175580782 77.437183886135486 1.0665234598528046 17.500607259110904 0.40818666889463695 0.027248062759756674 93.500000000000014 0.91125524632476795 0.29369620732053353 17.815400283597086 -0.10627272727272725 0.60957789692687758 0.91214942755625705 0.26631205673758868 4.816232960488728 0.67155898550724802 80.848514911014931 66.627139784303779 0.62250253207292494
decision_type=2 2 2 2 2 2 2 2 2 2 2 2 2 2 2 2 2 2 2 2 2 2 2 2 2 2 2 2 2 2 2 2 2 2 2 2 2 2 2 2 2 2 2 2 2 2 2 2 2 2 2 2 2 2 2 2 2 2 2 2 2 2 2 2 2 2 2 2 2 2 2 2 2 2 2 2 2 2 2 2 2 2 2 2 2 2 2 2 2 2 2 2 2 2 2 2 2 2 2
left_child=1 3 4 5 11 17 12 24 9 13 22 23 33 14 25 41 20 38 28 26 -6 60 -4 32 47 64 40 34 44 68 39 -24 35 -3 56 36 71 77 -1 78 -16 -5 43 62 -10 -15 -14 93 -29 -11 -20 53 -42 54 55 59 -23 58 83 -32 -9 -48 -13 72 -7 -19 -61 -36 69 70 -30 -2 -33 -74 75 -66 -18 -22 -12 84 -81 -72 -83 -54 85 86 98 97 -89 -90 91 -53 -67 -8 -95 96 -37 -56 -59
right_child=2 6 10 15 16 8 7 21 18 49 30 42 46 45 19 -17 76 65 50 -21 37 27 31 -25 -26 -27 -28 48 29 -31 51 63 -34 -35 67 95 -38 -39 -40 -41 52 -43 -44 -45 -46 -47 61 -49 -50 -51 -52 90 57 -55 87 -57 -58 79 -60 66 -62 -63 -64 -65 74 92 -68 -69 -70 -71 81 -73 73 -75 -76 -77 -78 -79 -80 80 -82 82 -84 -85 -86 -87 -88 88 89 -91 -92 -93 -94 94 -96 -97 -98 -99 -100
leaf_value=-0.013065459674004704 0.00074422618957128408 -0.011123809883696231 -0.009767803705889604 -0.0089456671913181879 -0.010209408519985657 -0.002480033111504147 -0.013917088092003713 -0.011686328937524009 -0.010766072722933782 -0.012024712053971999 -0.013468099486285011 -0.0031718073306257182 -0.009117620720399091 -0.0078503891738841321 -0.010763678736226955 -0.012984846649797058 3.3721927142650987e-05 -0.013621418131330944 0.0013738615476461353 -0.014148159777213967 -0.00020245244049102714 -0.0051243192529350874 -0.0062823155903399827 0.0008809259433516215 0.0011687482027654588 -0.013962087984507383 -0.01465454583849834 -0.0075667838860964086 -0.00038698983493309881 -0.011537454129239153 -0.015055419911789139 0.0020884383723061613 0.0015375633169340236 0.0002419119934618643 -0.0083959355341487706 -0.004557739528009459 0.0018277939773066393 -0.0010962857739708596 -0.00077696449787656083 0.0018768630228309523 0.0025366005878554995 0.0023628391935266485 -0.0031816709018965945 0.00090690203671855583 -0.002600574776820535 0.0028946629188431336 0.0011995212112494065 -0.0040613288549453093 0.0015687932943477933 -0.0062750722574417758 -0.0017405639070696361 -0.01933744577714205 0.00023795231290381992 0.0032797544395835702 -0.013352919193450817 0.0032450078493501985 -0.014179433373410053 -0.003271884270000434 0.00063519995731511317 -0.011710912981345661 -0.0015286854675330961 -0.013746102937533419 -0.012490894438451668 -0.011794950390295109 -0.0021399982256114368 -0.014200028188554349 0.00043372147881873003 0.00051118863950177379 -0.0097660789745781327 -0.00069909388694816424 -0.0025696629329386399 -0.013353174085122498 0.0013337670906202399 -0.01185026289584349 -0.0026794915209154414 -0.0095032453392119385 0.0027719864377477128 0.0020929688599358827 0.00047104378788307674 -0.01083889940283793 0.00074531880207116005 -0.01305314621987636 -0.0051016833214342656 -0.01309310839046695 -0.016985215529754485 0.002482831422260938 -0.0011967616047438355 -0.018363370436319738 0.0017103901758150518 -0.01226050964617359 0.0036117590291323567 0.00068109840587202879 -0.0011049864110442053 -0.01232579819985136 0.0025901814926122674 -0.0030349976534410059 -0.013508117759650535 0.0028247829635592147 -0.010685074452630198
leaf_weight=405.34320746362209 22.629523158073425 225.72937501966953 62.066993206739426 37.152261093258858 67.976454466581345 189.24614752829075 995.15094846487045 319.11974845826626 170.26732686161995 315.74625986814499 35.135660350322723 59.836044117808342 56.765356793999672 46.465474858880043 61.793936803936958 46.74080702662468 444.59041324257851 33.871785640716553 937.16880185902119 62.522389248013496 808.61033630371094 84.84255662560463 101.32940725982189 1545.4491072744131 32.884736657142639 126.4480949640274 39.543423667550087 75.565333023667336 248.79118716716766 86.71086959540844 50.883028030395508 1173.2619836777449 291.18928547203541 48.731110453605652 77.16646634042263 179.28684651851654 303.01607094705105 1010.313505500555 35.898341119289398 1269.9670907557011 205.04595209658146 1598.822410017252 514.17827367782593 47.64450116455555 116.80045658349991 277.36371646821499 372.87328827381134 55.184520378708839 181.30574809014797 233.46133087575436 888.52546386420727 11.52840320765972 20.013110354542732 7812.1551292091608 10.70292131602764 128.96540282666683 128.33827809989452 106.61507932841778 69.731282025575638 38.775978028774261 43.294686987996101 18.29826532304287 173.16302397847176 21.982010081410408 91.93157921731472 18.201310783624649 63.442997977137566 101.71659733355045 58.112985953688622 977.13082244992256 231.50750036537647 59.849388629198074 91.207606643438339 45.007271289825439 115.94481748342514 515.01940593123436 7088.4327093362808 2191.281501531601 29.379399195313454 26.037505552172661 475.25390757620335 80.869369193911552 193.59869591891766 100.45880165696144 15.420140862464903 86.912731558084488 180.44424243271351 13.051490038633345 190.65366610884666 26.082258716225624 67191.111809387803 35.597756668925285 177.61222100257874 140.43083429336548 32.256512045860291 270.73692145943642 91.548704788088799 2018.5933896005154 96.565497875213623
leaf_count=2243 75 1178 309 181 346 711 5637 1694 888 1708 198 228 277 218 323 257 1523 191 2976 362 2835 354 452 5080 104 726 232 352 854 463 310 3640 925 165 368 745 944 3665 127 3995 602 4896 2020 156 446 802 1202 224 569 1030 3284 82 65 22809 61 373 747 417 226 210 156 104 948 117 337 105 212 328 296 3436 887 336 294 239 439 2582 21264 6734 99 140 1543 458 828 574 100 254 646 90 606 145 192815 121 636 758 97 1055 530 6014 517
